{"learner":{"attributes":{},"feature_names":[],"feature_types":[],"gradient_booster":{"model":{"cats":{"enc":[],"feature_segments":[],"sorted_idx":[]},"gbtree_model_param":{"num_parallel_tree":"1","num_trees":"500"},"iteration_indptr":[0,1,2,3,4,5,6,7,8,9,10,11,12,13,14,15,16,17,18,19,20,21,22,23,24,25,26,27,28,29,30,31,32,33,34,35,36,37,38,39,40,41,42,43,44,45,46,47,48,49,50,51,52,53,54,55,56,57,58,59,60,61,62,63,64,65,66,67,68,69,70,71,72,73,74,75,76,77,78,79,80,81,82,83,84,85,86,87,88,89,90,91,92,93,94,95,96,97,98,99,100,101,102,103,104,105,106,107,108,109,110,111,112,113,114,115,116,117,118,119,120,121,122,123,124,125,126,127,128,129,130,131,132,133,134,135,136,137,138,139,140,141,142,143,144,145,146,147,148,149,150,151,152,153,154,155,156,157,158,159,160,161,162,163,164,165,166,167,168,169,170,171,172,173,174,175,176,177,178,179,180,181,182,183,184,185,186,187,188,189,190,191,192,193,194,195,196,197,198,199,200,201,202,203,204,205,206,207,208,209,210,211,212,213,214,215,216,217,218,219,220,221,222,223,224,225,226,227,228,229,230,231,232,233,234,235,236,237,238,239,240,241,242,243,244,245,246,247,248,249,250,251,252,253,254,255,256,257,258,259,260,261,262,263,264,265,266,267,268,269,270,271,272,273,274,275,276,277,278,279,280,281,282,283,284,285,286,287,288,289,290,291,292,293,294,295,296,297,298,299,300,301,302,303,304,305,306,307,308,309,310,311,312,313,314,315,316,317,318,319,320,321,322,323,324,325,326,327,328,329,330,331,332,333,334,335,336,337,338,339,340,341,342,343,344,345,346,347,348,349,350,351,352,353,354,355,356,357,358,359,360,361,362,363,364,365,366,367,368,369,370,371,372,373,374,375,376,377,378,379,380,381,382,383,384,385,386,387,388,389,390,391,392,393,394,395,396,397,398,399,400,401,402,403,404,405,406,407,408,409,410,411,412,413,414,415,416,417,418,419,420,421,422,423,424,425,426,427,428,429,430,431,432,433,434,435,436,437,438,439,440,441,442,443,444,445,446,447,448,449,450,451,452,453,454,455,456,457,458,459,460,461,462,463,464,465,466,467,468,469,470,471,472,473,474,475,476,477,478,479,480,481,482,483,484,485,486,487,488,489,490,491,492,493,494,495,496,497,498,499,500],"tree_info":[0,0,0,0,0,0,0,0,0,0,0,0,0,0,0,0,0,0,0,0,0,0,0,0,0,0,0,0,0,0,0,0,0,0,0,0,0,0,0,0,0,0,0,0,0,0,0,0,0,0,0,0,0,0,0,0,0,0,0,0,0,0,0,0,0,0,0,0,0,0,0,0,0,0,0,0,0,0,0,0,0,0,0,0,0,0,0,0,0,0,0,0,0,0,0,0,0,0,0,0,0,0,0,0,0,0,0,0,0,0,0,0,0,0,0,0,0,0,0,0,0,0,0,0,0,0,0,0,0,0,0,0,0,0,0,0,0,0,0,0,0,0,0,0,0,0,0,0,0,0,0,0,0,0,0,0,0,0,0,0,0,0,0,0,0,0,0,0,0,0,0,0,0,0,0,0,0,0,0,0,0,0,0,0,0,0,0,0,0,0,0,0,0,0,0,0,0,0,0,0,0,0,0,0,0,0,0,0,0,0,0,0,0,0,0,0,0,0,0,0,0,0,0,0,0,0,0,0,0,0,0,0,0,0,0,0,0,0,0,0,0,0,0,0,0,0,0,0,0,0,0,0,0,0,0,0,0,0,0,0,0,0,0,0,0,0,0,0,0,0,0,0,0,0,0,0,0,0,0,0,0,0,0,0,0,0,0,0,0,0,0,0,0,0,0,0,0,0,0,0,0,0,0,0,0,0,0,0,0,0,0,0,0,0,0,0,0,0,0,0,0,0,0,0,0,0,0,0,0,0,0,0,0,0,0,0,0,0,0,0,0,0,0,0,0,0,0,0,0,0,0,0,0,0,0,0,0,0,0,0,0,0,0,0,0,0,0,0,0,0,0,0,0,0,0,0,0,0,0,0,0,0,0,0,0,0,0,0,0,0,0,0,0,0,0,0,0,0,0,0,0,0,0,0,0,0,0,0,0,0,0,0,0,0,0,0,0,0,0,0,0,0,0,0,0,0,0,0,0,0,0,0,0,0,0,0,0,0,0,0,0,0,0,0,0,0,0,0,0,0,0,0,0,0,0,0,0,0,0,0,0,0,0,0,0,0,0,0,0,0,0,0,0,0,0,0,0,0,0,0,0,0,0,0,0,0,0,0,0,0,0,0,0,0,0,0,0,0,0,0],"trees":[{"base_weights":[-1.5659723E-3,6.9934905E-1,-7.1264603E-3,-2.2020148E-1,8.7056E-1,7.762375E-2,-2.2065816E-2,-5.205089E-1,2.7522606E-1,5.562743E-1,1.1658219E0,5.6750022E-2,3.901122E-1,-2.5243044E-2,2.3135412E-1,-8.5145974E-1,2.9953957E-1,1.0429056E0,1.2750403E-2,3.2839093E-1,6.610761E-1,1.3410501E0,-1.2963536E-1,-5.0354894E-2,9.244801E-2,4.179613E-1,-1.0845731E0,-4.4586517E-2,6.2872097E-3,-1.2595733E-1,4.7366142E-1,-3.8616106E-2,-5.8981913E-1,8.9792293E-1,-1.3577852E-1,7.609669E-3,3.9278E-2,-3.258953E-1,4.8167244E-1,1.1377767E0,1.7034821E-1,7.789319E-1,2.7567557E-1,1.6266867E0,9.4990677E-1,4.5049492E-2,-1.085621E0,-9.035242E-2,1.821361E-1,2.2969113E-1,5.8656286E-2,2.854773E-1,6.694039E-1,-3.8708422E-2,-5.7295524E-3,-1.8251777E-2,-8.388603E-2,3.768511E-2,-7.895994E-2,5.5208254E-1,-1.9069193E-1,7.5452876E-1,2.6178062E-1,-2.2716413E-3,-3.4602355E-2,7.609669E-3,3.4288116E-2,1.3021023E-2,-1.373967E-2,8.773748E-3,-2.266132E-2,3.9278E-2,-6.2351977E-3,7.609669E-3,4.0141314E-2,-2.4360763E-2,1.0865377E-2,2.502728E-2,-7.3674973E-3,2.3036117E-2,3.8251208E-4,3.287248E-2,5.1924884E-2,5.2433847E-3,2.9973915E-2,-5.7295524E-3,-3.6045123E-2,1.0272039E-3,-6.4963093E-3,1.1414878E-2,-9.890554E-4,3.1610667E-3,1.05515225E-2,1.0130188E-3,6.452446E-3,1.0827527E-3,1.1262717E-2,4.1475804E-3,2.8664304E-2,-1.630078E-2,-4.4488208E-4,-3.5227323E-3,-1.7066883E-3,1.8161756E-3,-3.0324266E-3,-2.8438524E-3,5.632045E-3,7.83468E-3,3.5513986E-2,-2.7329824E-3,-1.6848106E-2,-1.095757E-2,2.7812595E-2,-7.936997E-3,1.1494589E-2],"categories":[],"categories_nodes":[],"categories_segments":[],"categories_sizes":[],"default_left":[0,0,0,0,0,0,0,0,0,0,0,0,0,0,0,0,0,0,0,0,0,0,0,0,0,0,0,0,0,0,0,0,0,0,0,0,0,0,0,0,0,0,0,0,0,0,0,0,0,0,0,0,0,0,0,0,0,0,0,0,0,0,0,0,0,0,0,0,0,0,0,0,0,0,0,0,0,0,0,0,0,0,0,0,0,0,0,0,0,0,0,0,0,0,0,0,0,0,0,0,0,0,0,0,0,0,0,0,0,0,0,0,0,0,0],"id":0,"left_children":[1,3,5,7,9,11,13,15,17,19,21,23,25,27,29,31,33,35,37,39,41,43,45,47,49,51,53,55,57,59,61,-1,63,65,67,-1,-1,69,71,73,75,77,79,81,83,-1,85,87,89,91,93,95,97,-1,-1,99,101,103,105,107,109,111,113,-1,-1,-1,-1,-1,-1,-1,-1,-1,-1,-1,-1,-1,-1,-1,-1,-1,-1,-1,-1,-1,-1,-1,-1,-1,-1,-1,-1,-1,-1,-1,-1,-1,-1,-1,-1,-1,-1,-1,-1,-1,-1,-1,-1,-1,-1,-1,-1,-1,-1,-1,-1],"loss_changes":[1.2357313E2,3.94805E1,3.9829197E1,6.0898685E0,1.8892899E1,3.0727968E1,2.1538761E1,7.102559E0,3.1579208E0,2.2647476E0,2.4613907E1,1.6905115E1,1.2569229E1,1.6109688E1,2.8737919E1,1.319871E0,2.2043664E0,5.082984E-1,2.1801722E0,4.247885E0,2.9736385E0,9.060303E0,2.3057339E1,1.0297705E1,1.5363293E1,9.478409E0,8.0983496E-1,1.6940712E1,2.688593E1,6.015147E0,1.1561352E1,0E0,3.748921E0,2.622652E-1,1.2079241E0,0E0,0E0,2.344013E0,3.5511231E0,6.3379574E-1,5.9903226E0,3.220028E0,2.3178492E0,1.0593414E0,1.4456825E0,0E0,7.288294E-1,1.4849442E1,6.9512963E0,9.895573E0,1.0356159E1,4.2898693E0,1.4974834E1,0E0,0E0,1.7609428E1,5.9401245E0,2.3286861E1,1.143656E1,1.8946359E0,4.5165625E0,1.6653477E1,7.3943663E0,0E0,0E0,0E0,0E0,0E0,0E0,0E0,0E0,0E0,0E0,0E0,0E0,0E0,0E0,0E0,0E0,0E0,0E0,0E0,0E0,0E0,0E0,0E0,0E0,0E0,0E0,0E0,0E0,0E0,0E0,0E0,0E0,0E0,0E0,0E0,0E0,0E0,0E0,0E0,0E0,0E0,0E0,0E0,0E0,0E0,0E0,0E0,0E0,0E0,0E0,0E0,0E0],"parents":[2147483647,0,0,1,1,2,2,3,3,4,4,5,5,6,6,7,7,8,8,9,9,10,10,11,11,12,12,13,13,14,14,15,15,16,16,17,17,18,18,19,19,20,20,21,21,22,22,23,23,24,24,25,25,26,26,27,27,28,28,29,29,30,30,32,32,33,33,34,34,37,37,38,38,39,39,40,40,41,41,42,42,43,43,44,44,46,46,47,47,48,48,49,49,50,50,51,51,52,52,55,55,56,56,57,57,58,58,59,59,60,60,61,61,62,62],"right_children":[2,4,6,8,10,12,14,16,18,20,22,24,26,28,30,32,34,36,38,40,42,44,46,48,50,52,54,56,58,60,62,-1,64,66,68,-1,-1,70,72,74,76,78,80,82,84,-1,86,88,90,92,94,96,98,-1,-1,100,102,104,106,108,110,112,114,-1,-1,-1,-1,-1,-1,-1,-1,-1,-1,-1,-1,-1,-1,-1,-1,-1,-1,-1,-1,-1,-1,-1,-1,-1,-1,-1,-1,-1,-1,-1,-1,-1,-1,-1,-1,-1,-1,-1,-1,-1,-1,-1,-1,-1,-1,-1,-1,-1,-1,-1,-1],"split_conditions":[-1.12762235E-1,2.3644386E-1,-3.2293987E-2,5.277072E-1,8.3689857E-1,6.8364376E-1,7.688951E-1,2.5E1,6.1550796E-1,4.831467E-1,9.4351214E-1,2.3088022E1,5.3846153E1,1.1974614E-2,8.3898693E-1,4.088126E-2,1.24738544E-1,2.1423086E1,8.471779E-1,2.72066E-1,7.688951E-1,-1.3468443E-1,4.995864E-1,8.975051E-1,-6.27907E-2,8.823598E-1,8.1272215E-1,4.806344E1,8.03498E-1,4.008057E-1,5.56962E1,-3.8616106E-2,2E1,1.9295322E-3,6.156321E-2,7.609669E-3,3.9278E-2,1.1452361E-1,8.861767E-1,2.340732E-1,3.0017155E-1,8.3251894E-1,6.4780176E-1,6.136372E-1,8.493301E-1,4.5049492E-2,5.8262765E-1,5.969343E-1,-5.546443E-2,2.9564194E1,8.956845E-1,-8.089809E-2,2.6984127E1,-3.8708422E-2,-5.7295524E-3,1.4956002E1,1.2391574E-3,6.681077E-2,8.2513664E1,7.2972536E-2,8.4107673E-1,3.6681633E1,2.5809921E-2,-2.2716413E-3,-3.4602355E-2,7.609669E-3,3.4288116E-2,1.3021023E-2,-1.373967E-2,8.773748E-3,-2.266132E-2,3.9278E-2,-6.2351977E-3,7.609669E-3,4.0141314E-2,-2.4360763E-2,1.0865377E-2,2.502728E-2,-7.3674973E-3,2.3036117E-2,3.8251208E-4,3.287248E-2,5.1924884E-2,5.2433847E-3,2.9973915E-2,-5.7295524E-3,-3.6045123E-2,1.0272039E-3,-6.4963093E-3,1.1414878E-2,-9.890554E-4,3.1610667E-3,1.05515225E-2,1.0130188E-3,6.452446E-3,1.0827527E-3,1.1262717E-2,4.1475804E-3,2.8664304E-2,-1.630078E-2,-4.4488208E-4,-3.5227323E-3,-1.7066883E-3,1.8161756E-3,-3.0324266E-3,-2.8438524E-3,5.632045E-3,7.83468E-3,3.5513986E-2,-2.7329824E-3,-1.6848106E-2,-1.095757E-2,2.7812595E-2,-7.936997E-3,1.1494589E-2],"split_indices":[4,1,4,0,0,1,1,2,0,1,0,2,2,4,0,1,0,2,0,1,1,4,1,0,4,0,1,2,0,0,2,0,2,1,1,0,0,1,0,0,1,0,0,1,0,0,1,0,4,2,0,4,2,0,0,2,4,4,2,4,1,2,4,0,0,0,0,0,0,0,0,0,0,0,0,0,0,0,0,0,0,0,0,0,0,0,0,0,0,0,0,0,0,0,0,0,0,0,0,0,0,0,0,0,0,0,0,0,0,0,0,0,0,0,0],"split_type":[0,0,0,0,0,0,0,0,0,0,0,0,0,0,0,0,0,0,0,0,0,0,0,0,0,0,0,0,0,0,0,0,0,0,0,0,0,0,0,0,0,0,0,0,0,0,0,0,0,0,0,0,0,0,0,0,0,0,0,0,0,0,0,0,0,0,0,0,0,0,0,0,0,0,0,0,0,0,0,0,0,0,0,0,0,0,0,0,0,0,0,0,0,0,0,0,0,0,0,0,0,0,0,0,0,0,0,0,0,0,0,0,0,0,0],"sum_hessian":[3.1704037E4,2.4855234E2,3.1455484E4,3.896901E1,2.0958333E2,4.7132515E3,2.6742232E4,2.423073E1,1.4738279E1,1.0291815E2,1.0666517E2,4.4192354E3,2.9401617E2,2.6411994E4,3.3023737E2,1.7236292E1,6.994437E0,2.997616E0,1.1740663E1,3.372318E1,6.919497E1,9.39253E1,1.2739868E1,1.1046215E3,3.314614E3,2.8926996E2,4.7462254E0,1.6369231E4,1.0042763E4,1.3364372E2,1.9659366E2,4.996027E0,1.2240266E1,2.4980135E0,4.496424E0,1.2490067E0,1.7486093E0,6.994437E0,4.7462254E0,4.496424E0,2.9226757E1,5.220848E1,1.698649E1,5.2458282E1,4.1467022E1,4.496424E0,8.243444E0,9.4300006E2,1.6162146E2,6.537301E2,2.6608838E3,1.9084822E2,9.842173E1,3.4972186E0,1.2490067E0,9.802204E3,6.5670273E3,7.3399126E3,2.7028506E3,1.0991259E1,1.2265246E2,8.343365E1,1.1316E2,6.994437E0,5.245828E0,1.2490067E0,1.2490067E0,1.498808E0,2.997616E0,2.997616E0,3.9968214E0,1.7486093E0,2.997616E0,1.2490067E0,3.2474174E0,4.2466226E0,2.4980133E1,4.9710464E1,2.4980135E0,5.245828E0,1.1740663E1,1.0491656E1,4.1966625E1,2.7478147E0,3.8719208E1,1.2490067E0,6.994437E0,4.7487234E2,4.6812772E2,8.368345E1,7.793802E1,3.2474173E2,3.2898837E2,2.2966736E3,3.6421036E2,5.0959473E1,1.3988875E2,3.4972187E1,6.344954E1,6.2450333E1,9.739754E3,2.927172E3,3.6398552E3,6.302488E3,1.0374249E3,2.5519705E3,1.5088E2,8.493245E0,2.4980135E0,9.7672325E1,2.4980133E1,1.0991259E1,7.244239E1,2.0983313E1,9.21767E1],"tree_param":{"num_deleted":"0","num_feature":"5","num_nodes":"115","size_leaf_vector":"1"}},{"base_weights":[-1.9853313E-3,2.6680106E-1,-1.7526174E-2,9.349318E-1,2.1575673E-1,-2.0692753E-2,2.2866352E-1,2.54262E-1,1.1163993E0,1.0985297E-1,4.047514E-1,-3.6115717E-2,7.547605E-3,5.264892E-1,-4.2933278E-2,-2.834407E-2,4.4147107E-1,1.2025644E0,2.6978216E-1,-7.3005715E-3,1.8156837E-1,4.2204958E-1,-4.7184996E-2,1.465636E-2,-5.7374652E-2,5.954771E-2,-5.6968268E-2,1.7126574E-1,7.346954E-1,-5.64765E-1,3.185684E-2,4.7206443E-2,1.912998E-1,1.12329E0,4.6903618E-2,-3.712846E-1,1.0170392E0,-2.6660442E-1,7.555703E-2,2.3049144E-1,-5.1847227E-2,3.6971122E-1,1.0005847E0,-5.352074E-3,1.1065046E-1,-7.478839E-1,-5.4995168E-2,1.7025162E-1,3.6911286E-2,-8.586972E-2,3.6620915E-2,5.000411E-1,-5.269098E-1,1.0432923E0,5.110721E-1,-3.535918E-1,-4.0481754E-2,7.510228E-1,-2.6285496E-2,-7.4850423E-3,2.03367E-2,3.8688246E-2,2.6985725E-2,7.4412073E-3,-1.7270595E-2,7.105489E-3,3.6417086E-2,-1.1967061E-2,3.2927704E-3,1.6666522E-3,3.4144565E-2,1.3870671E-2,5.7182494E-3,-9.187867E-3,4.479006E-3,2.5525441E-2,9.393291E-3,4.4523485E-2,2.396139E-2,-6.2314165E-4,1.8625164E-3,-6.611153E-4,5.5817375E-3,-3.0080434E-2,4.0008556E-2,-1.3270411E-3,-4.3802094E-3,5.381557E-3,-4.71667E-2,5.690528E-4,6.799628E-3,-1.3012808E-3,-4.6804845E-3,2.2188544E-3,-4.8100455E-3,1.9363577E-2,-1.40508E-2,-2.1079108E-2,6.8499777E-3,2.116597E-2,3.893619E-2,1.8978777E-3,2.1130597E-2,-4.2771187E-2,-3.514534E-3,2.7080283E-2,-4.6892995E-3,-1.8275935E-2,9.592516E-4],"categories":[],"categories_nodes":[],"categories_segments":[],"categories_sizes":[],"default_left":[0,0,0,0,0,0,0,0,0,0,0,0,0,0,0,0,0,0,0,0,0,0,0,0,0,0,0,0,0,0,0,0,0,0,0,0,0,0,0,0,0,0,0,0,0,0,0,0,0,0,0,0,0,0,0,0,0,0,0,0,0,0,0,0,0,0,0,0,0,0,0,0,0,0,0,0,0,0,0,0,0,0,0,0,0,0,0,0,0,0,0,0,0,0,0,0,0,0,0,0,0,0,0,0,0,0,0,0,0],"id":1,"left_children":[1,3,5,7,9,11,13,15,17,19,21,23,25,27,29,-1,31,33,35,37,39,41,-1,43,45,47,49,51,53,55,57,-1,59,61,-1,63,65,67,69,71,73,75,77,79,81,83,85,87,89,91,93,95,97,99,101,103,-1,105,107,-1,-1,-1,-1,-1,-1,-1,-1,-1,-1,-1,-1,-1,-1,-1,-1,-1,-1,-1,-1,-1,-1,-1,-1,-1,-1,-1,-1,-1,-1,-1,-1,-1,-1,-1,-1,-1,-1,-1,-1,-1,-1,-1,-1,-1,-1,-1,-1,-1,-1],"loss_changes":[1.3298055E2,5.9141533E1,2.3466103E1,1.4934029E1,3.2337227E1,1.2942062E1,3.0942959E1,6.5289598E0,6.749794E0,8.724166E0,2.0526352E1,2.0744253E1,3.521716E1,1.3364498E1,7.857044E0,0E0,6.561772E0,7.5362396E-1,5.2864614E0,8.510796E0,7.366474E0,1.7082718E1,0E0,1.0896271E1,2.2216469E1,1.4559372E1,1.2675377E1,1.603474E1,7.381752E0,3.7036324E0,7.405168E0,0E0,4.6701107E0,1.6490479E0,0E0,9.337451E-1,4.8031187E-1,4.8197517E0,6.3186173E0,4.837288E0,5.798494E0,1.41712265E1,3.424965E0,4.883523E0,9.794663E0,2.59678E1,1.3215481E1,1.5981791E1,1.642931E1,1.0664032E1,8.146781E0,6.9522123E0,3.1443477E0,3.1455383E0,5.881132E0,5.2162213E0,0E0,1.9636583E0,5.6019683E0,0E0,0E0,0E0,0E0,0E0,0E0,0E0,0E0,0E0,0E0,0E0,0E0,0E0,0E0,0E0,0E0,0E0,0E0,0E0,0E0,0E0,0E0,0E0,0E0,0E0,0E0,0E0,0E0,0E0,0E0,0E0,0E0,0E0,0E0,0E0,0E0,0E0,0E0,0E0,0E0,0E0,0E0,0E0,0E0,0E0,0E0,0E0,0E0,0E0,0E0],"parents":[2147483647,0,0,1,1,2,2,3,3,4,4,5,5,6,6,7,7,8,8,9,9,10,10,11,11,12,12,13,13,14,14,16,16,17,17,18,18,19,19,20,20,21,21,23,23,24,24,25,25,26,26,27,27,28,28,29,29,30,30,32,32,33,33,35,35,36,36,37,37,38,38,39,39,40,40,41,41,42,42,43,43,44,44,45,45,46,46,47,47,48,48,49,49,50,50,51,51,52,52,53,53,54,54,55,55,57,57,58,58],"right_children":[2,4,6,8,10,12,14,16,18,20,22,24,26,28,30,-1,32,34,36,38,40,42,-1,44,46,48,50,52,54,56,58,-1,60,62,-1,64,66,68,70,72,74,76,78,80,82,84,86,88,90,92,94,96,98,100,102,104,-1,106,108,-1,-1,-1,-1,-1,-1,-1,-1,-1,-1,-1,-1,-1,-1,-1,-1,-1,-1,-1,-1,-1,-1,-1,-1,-1,-1,-1,-1,-1,-1,-1,-1,-1,-1,-1,-1,-1,-1,-1,-1,-1,-1,-1,-1,-1,-1,-1,-1,-1,-1],"split_conditions":[-3.6646497E-2,-1.3468443E-1,7.688951E-1,4.0926996E-1,2.8979591E1,1.1025413E-2,9.7615095E-3,4.088126E-2,-7.405431E-2,2.8807688E-1,5.4375E1,-1.3195272E-2,1.7921742E-2,3.935484E1,1.03169745E-2,-2.834407E-2,1.1452361E-1,2.5808907E1,2.8027555E1,-8.603066E-2,-5.8709364E-2,7.0386237E-1,-4.7184996E-2,4.7151145E-1,1.4956002E1,5.3271027E1,7.777778E1,-1.4251283E-2,-7.187352E-3,6.2820515E1,5.56962E1,4.7206443E-2,2.0731707E1,1.746134E1,4.6903618E-2,5.4048556E-1,6.4934874E-1,2.4537037E1,-3.2293987E-2,-1.12762235E-1,-4.251561E-2,-6.558954E-2,-9.174759E-2,4.1450382E1,2.9276155E1,2.1871985E-3,8.221037E-3,1.3413347E-1,7.468355E1,3.153252E-2,6.821135E-2,-2.2894898E-2,3.7535477E1,8.1272215E-1,-2.3255814E-3,4.3777977E1,-4.0481754E-2,3.5990577E-2,2.6351606E-2,-7.4850423E-3,2.03367E-2,3.8688246E-2,2.6985725E-2,7.4412073E-3,-1.7270595E-2,7.105489E-3,3.6417086E-2,-1.1967061E-2,3.2927704E-3,1.6666522E-3,3.4144565E-2,1.3870671E-2,5.7182494E-3,-9.187867E-3,4.479006E-3,2.5525441E-2,9.393291E-3,4.4523485E-2,2.396139E-2,-6.2314165E-4,1.8625164E-3,-6.611153E-4,5.5817375E-3,-3.0080434E-2,4.0008556E-2,-1.3270411E-3,-4.3802094E-3,5.381557E-3,-4.71667E-2,5.690528E-4,6.799628E-3,-1.3012808E-3,-4.6804845E-3,2.2188544E-3,-4.8100455E-3,1.9363577E-2,-1.40508E-2,-2.1079108E-2,6.8499777E-3,2.116597E-2,3.893619E-2,1.8978777E-3,2.1130597E-2,-4.2771187E-2,-3.514534E-3,2.7080283E-2,-4.6892995E-3,-1.8275935E-2,9.592516E-4],"split_indices":[3,4,1,1,2,4,3,1,3,1,2,3,3,2,4,0,1,2,2,4,4,1,0,1,2,2,2,3,3,2,2,0,2,2,0,1,1,2,4,4,3,3,4,2,2,3,3,4,2,3,3,4,2,1,4,2,0,3,4,0,0,0,0,0,0,0,0,0,0,0,0,0,0,0,0,0,0,0,0,0,0,0,0,0,0,0,0,0,0,0,0,0,0,0,0,0,0,0,0,0,0,0,0,0,0,0,0,0,0],"split_type":[0,0,0,0,0,0,0,0,0,0,0,0,0,0,0,0,0,0,0,0,0,0,0,0,0,0,0,0,0,0,0,0,0,0,0,0,0,0,0,0,0,0,0,0,0,0,0,0,0,0,0,0,0,0,0,0,0,0,0,0,0,0,0,0,0,0,0,0,0,0,0,0,0,0,0,0,0,0,0,0,0,0,0,0,0,0,0,0,0,0,0,0,0,0,0,0,0,0,0,0,0,0,0,0,0,0,0,0,0],"sum_hessian":[3.1832984E4,1.7390531E3,3.0093932E4,1.22202385E2,1.6168507E3,2.9712674E4,3.8125888E2,2.622725E1,9.5975136E1,1.0372216E3,5.7962915E2,1.9217242E4,1.0495431E4,1.8140097E2,1.998579E2,2.9953585E0,2.3231892E1,8.6727905E1,9.247231E0,3.9418436E2,6.4303723E2,5.753828E2,4.246369E0,5.6717896E3,1.3545452E4,5.81145E3,4.68398E3,6.770725E1,1.13693726E2,2.4232134E1,1.7562576E2,3.2473001E0,1.998459E1,7.4479904E1,1.2247996E1,5.2480774E0,3.9991534E0,9.491841E1,2.9926593E2,5.316234E2,1.1141382E2,5.2915106E2,4.6231693E1,4.694285E3,9.7750446E2,4.5441216E1,1.3500012E4,9.8546954E2,4.825981E3,3.578866E3,1.1051141E3,4.6223904E1,2.1483347E1,4.6230663E1,6.746306E1,2.0236395E1,3.9957402E0,1.2245349E1,1.6338042E2,1.0741306E1,9.243284E0,3.999191E1,3.4488E1,1.2492961E0,3.9987812E0,1.2496771E0,2.7494764E0,7.0186775E1,2.4731632E1,2.9476956E2,4.4963675E0,7.646927E1,4.5515414E2,4.8962532E1,6.245129E1,5.422061E1,4.7493048E2,1.1745828E1,3.4485867E1,3.8212449E3,8.7304034E2,3.54475E2,6.230295E2,4.0947155E1,4.49406E0,1.2073974E4,1.4260378E3,9.812233E2,4.246274E0,4.410049E3,4.1593198E2,2.2297402E3,1.349126E3,9.2951215E2,1.75602E2,4.047919E1,5.744714E0,1.7484718E1,3.9986289E0,2.1490248E1,2.4740417E1,2.0739473E1,4.6723587E1,2.747642E0,1.7488752E1,1.0496137E1,1.7492118E0,1.3986391E1,1.4939401E2],"tree_param":{"num_deleted":"0","num_feature":"5","num_nodes":"109","size_leaf_vector":"1"}},{"base_weights":[-1.8135242E-3,6.795125E-1,-7.2984067E-3,1.6786921E-1,9.3123025E-1,1.31983E-1,-1.8607898E-2,5.3483343E-1,-7.569871E-3,1.2387735E0,5.780095E-1,4.5301773E-2,2.5058618E-1,-3.7689958E-2,1.6229108E-2,1.780467E-1,9.9778014E-1,-3.5429302E-1,3.059419E-1,1.3170162E0,3.0657427E-2,6.7322516E-1,-6.6944915E-1,2.3044989E-1,-1.6413629E-2,4.8606595E-1,1.7824453E-1,-4.447175E-2,1.1425035E-1,1.3915792E-1,-9.526084E-3,5.362966E-1,-6.0014063E-1,1.3486437E0,-1.1060946E-1,-1.06747314E-1,-1.0905646E0,4.26484E-1,-2.9137064E-2,8.796167E-1,4.720391E-2,-5.617642E-1,3.6083695E-2,3.2586542E-1,8.8769096E-1,2.064876E-2,-3.440424E-2,4.7773153E-2,3.0005032E-1,-7.623816E-2,1.4504385E-1,1.19254E0,4.574638E-1,1.9098301E-1,-1.0554532E0,-3.9284054E-2,-2.8035104E-1,2.0133522E-1,-1.8724954E-2,3.606357E-1,1.1235548E-1,2.8898813E-2,-9.095488E-2,-1.7360846E-3,2.4395168E-2,-2.6550798E-2,7.0932107E-3,4.3983813E-2,1.6455075E-2,-1.1404154E-2,7.1389144E-3,-7.3824464E-3,2.3482883E-2,-6.032184E-3,-3.747075E-2,2.794242E-3,2.5513714E-2,3.0484946E-2,7.344742E-3,-2.2178737E-2,-4.4271457E-3,2.6543105E-2,9.26316E-4,3.210807E-2,8.806525E-3,-1.3890754E-2,5.283013E-3,1.3479853E-2,4.150707E-3,6.2152497E-3,-4.3519638E-3,-5.112434E-3,7.73822E-3,3.9770186E-2,7.0056636E-3,1.4339126E-2,-7.6595643E-3,3.6632504E-2,5.414146E-3,-4.4969402E-2,-9.362412E-3,-9.488678E-3,-1.0920162E-3,-5.0655734E-3,-1.1135796E-2,3.939889E-3,1.5967878E-2,9.459029E-3,-2.5080454E-3,-4.692441E-3,1.2717629E-2,2.9660806E-3,1.4994477E-2,1.929451E-3,-2.2654573E-3,-4.603006E-3,1.8457776E-4],"categories":[],"categories_nodes":[],"categories_segments":[],"categories_sizes":[],"default_left":[0,0,0,0,0,0,0,0,0,0,0,0,0,0,0,0,0,0,0,0,0,0,0,0,0,0,0,0,0,0,0,0,0,0,0,0,0,0,0,0,0,0,0,0,0,0,0,0,0,0,0,0,0,0,0,0,0,0,0,0,0,0,0,0,0,0,0,0,0,0,0,0,0,0,0,0,0,0,0,0,0,0,0,0,0,0,0,0,0,0,0,0,0,0,0,0,0,0,0,0,0,0,0,0,0,0,0,0,0,0,0,0,0,0,0,0,0],"id":2,"left_children":[1,3,5,7,9,11,13,15,17,19,21,23,25,27,29,31,33,35,37,39,41,43,45,47,49,51,53,55,57,59,61,63,65,67,69,71,73,75,-1,77,-1,79,-1,81,83,-1,-1,85,87,89,91,93,95,97,99,101,103,105,107,109,111,113,115,-1,-1,-1,-1,-1,-1,-1,-1,-1,-1,-1,-1,-1,-1,-1,-1,-1,-1,-1,-1,-1,-1,-1,-1,-1,-1,-1,-1,-1,-1,-1,-1,-1,-1,-1,-1,-1,-1,-1,-1,-1,-1,-1,-1,-1,-1,-1,-1,-1,-1,-1,-1,-1,-1],"loss_changes":[1.1881012E2,3.254326E1,4.9682343E1,5.472665E0,1.774643E1,2.434055E1,1.9392403E1,4.362724E0,6.4624915E0,8.46489E0,1.00691185E1,1.5655133E1,1.6947754E1,1.9426207E1,3.26889E1,4.9891253E0,4.7175493E0,5.0270576E0,5.222806E0,8.092194E0,5.186989E0,5.352707E0,4.836254E0,4.340336E0,9.942982E0,4.191395E0,1.2248096E1,2.2067734E1,9.332638E0,1.0576065E1,2.6713737E1,2.019858E0,1.5795295E0,4.1707993E-2,4.4265032E-1,2.9475625E0,7.344065E-1,4.052549E0,0E0,2.6543026E0,0E0,2.5834715E-1,0E0,4.9996023E0,4.7022667E0,0E0,0E0,6.353376E0,5.9194946E0,1.46777E1,9.956627E0,7.7557945E-1,3.4390144E0,8.003977E0,2.1656284E0,1.4091127E1,3.8684883E0,1.1209499E1,6.9546957E0,6.369034E0,8.294655E0,2.1455772E1,1.660771E1,0E0,0E0,0E0,0E0,0E0,0E0,0E0,0E0,0E0,0E0,0E0,0E0,0E0,0E0,0E0,0E0,0E0,0E0,0E0,0E0,0E0,0E0,0E0,0E0,0E0,0E0,0E0,0E0,0E0,0E0,0E0,0E0,0E0,0E0,0E0,0E0,0E0,0E0,0E0,0E0,0E0,0E0,0E0,0E0,0E0,0E0,0E0,0E0,0E0,0E0,0E0,0E0,0E0,0E0],"parents":[2147483647,0,0,1,1,2,2,3,3,4,4,5,5,6,6,7,7,8,8,9,9,10,10,11,11,12,12,13,13,14,14,15,15,16,16,17,17,18,18,19,19,20,20,21,21,22,22,23,23,24,24,25,25,26,26,27,27,28,28,29,29,30,30,31,31,32,32,33,33,34,34,35,35,36,36,37,37,39,39,41,41,43,43,44,44,47,47,48,48,49,49,50,50,51,51,52,52,53,53,54,54,55,55,56,56,57,57,58,58,59,59,60,60,61,61,62,62],"right_children":[2,4,6,8,10,12,14,16,18,20,22,24,26,28,30,32,34,36,38,40,42,44,46,48,50,52,54,56,58,60,62,64,66,68,70,72,74,76,-1,78,-1,80,-1,82,84,-1,-1,86,88,90,92,94,96,98,100,102,104,106,108,110,112,114,116,-1,-1,-1,-1,-1,-1,-1,-1,-1,-1,-1,-1,-1,-1,-1,-1,-1,-1,-1,-1,-1,-1,-1,-1,-1,-1,-1,-1,-1,-1,-1,-1,-1,-1,-1,-1,-1,-1,-1,-1,-1,-1,-1,-1,-1,-1,-1,-1,-1,-1,-1,-1,-1,-1],"split_conditions":[-1.12762235E-1,7.075796E-1,-2.9999753E-2,-8.908477E-2,-1.3468443E-1,2.8979591E1,1.1974614E-2,1.9214876E1,3.9063907E-1,9.4351214E-1,9.52137E-1,4.6040297E-1,-6.7547254E-2,9.3141264E-1,5.8969515E-3,5.731962E-1,2.986191E1,3.260861E-1,-4.0865596E-2,8.430662E-1,9.591047E-1,8.471779E-1,1.4956002E1,-4.891753E-2,8.975051E-1,-8.908477E-2,5.4375E1,1.5460142E-2,-5.958423E-3,-8.13177E-3,7.722511E-1,2.2829348E-1,1.6346153E1,2.7348244E1,3.558776E1,3.236715E1,1.746134E1,2.0731707E1,-2.9137064E-2,-7.405431E-2,4.720391E-2,1.9214876E1,3.6083695E-2,7.592625E-1,-6.558954E-2,2.064876E-2,-3.440424E-2,8.741135E-2,-3.6646497E-2,-5.5233E-2,-5.5233E-2,3.837429E1,4.3448277E1,-7.405431E-2,-3.6646497E-2,1.6346153E1,5.493301E1,4.4308945E1,4.4444443E1,4.1254753E1,7.227357E1,3.0570125E-2,4.1533545E-2,-1.7360846E-3,2.4395168E-2,-2.6550798E-2,7.0932107E-3,4.3983813E-2,1.6455075E-2,-1.1404154E-2,7.1389144E-3,-7.3824464E-3,2.3482883E-2,-6.032184E-3,-3.747075E-2,2.794242E-3,2.5513714E-2,3.0484946E-2,7.344742E-3,-2.2178737E-2,-4.4271457E-3,2.6543105E-2,9.26316E-4,3.210807E-2,8.806525E-3,-1.3890754E-2,5.283013E-3,1.3479853E-2,4.150707E-3,6.2152497E-3,-4.3519638E-3,-5.112434E-3,7.73822E-3,3.9770186E-2,7.0056636E-3,1.4339126E-2,-7.6595643E-3,3.6632504E-2,5.414146E-3,-4.4969402E-2,-9.362412E-3,-9.488678E-3,-1.0920162E-3,-5.0655734E-3,-1.1135796E-2,3.939889E-3,1.5967878E-2,9.459029E-3,-2.5080454E-3,-4.692441E-3,1.2717629E-2,2.9660806E-3,1.4994477E-2,1.929451E-3,-2.2654573E-3,-4.603006E-3,1.8457776E-4],"split_indices":[4,0,3,3,4,2,4,2,0,0,0,0,4,0,3,0,2,0,3,0,0,0,2,3,0,3,2,3,3,3,0,0,2,2,2,2,2,2,0,3,0,2,0,0,3,0,0,0,3,3,3,2,2,3,3,2,2,2,2,2,2,3,4,0,0,0,0,0,0,0,0,0,0,0,0,0,0,0,0,0,0,0,0,0,0,0,0,0,0,0,0,0,0,0,0,0,0,0,0,0,0,0,0,0,0,0,0,0,0,0,0,0,0,0,0,0,0],"split_type":[0,0,0,0,0,0,0,0,0,0,0,0,0,0,0,0,0,0,0,0,0,0,0,0,0,0,0,0,0,0,0,0,0,0,0,0,0,0,0,0,0,0,0,0,0,0,0,0,0,0,0,0,0,0,0,0,0,0,0,0,0,0,0,0,0,0,0,0,0,0,0,0,0,0,0,0,0,0,0,0,0,0,0,0,0,0,0,0,0,0,0,0,0,0,0,0,0,0,0,0,0,0,0,0,0,0,0,0,0,0,0,0,0,0,0,0,0],"sum_hessian":[3.1790643E4,2.5289917E2,3.1537744E4,8.394296E1,1.689562E2,2.3677075E3,2.9170037E4,2.648856E1,5.7454407E1,8.8977745E1,7.997846E1,1.3687428E3,9.9896466E2,1.8846652E4,1.0323385E4,1.5741442E1,1.0747119E1,2.7220388E1,3.0234016E1,8.348102E1,5.496727E0,7.4734474E1,5.243989E0,3.4149954E2,1.0272433E3,2.3342441E2,7.655402E2,1.804206E4,8.04592E2,1.7874642E3,8.53592E3,1.0991967E1,4.7494745E0,7.998435E0,2.7486837E0,2.1228146E1,5.9922423E0,2.8235205E1,1.9988116E0,3.2492115E1,5.09889E1,3.9971914E0,1.4995358E0,2.949015E1,4.5244324E1,1.2491589E0,3.99483E0,9.468114E1,2.4681839E2,7.4990875E2,2.7733444E2,7.49922E0,2.2592519E2,7.5855304E2,6.9872103E0,1.7654941E4,3.8711868E2,4.8587848E2,3.187135E2,1.9161646E2,1.5958478E3,5.799757E3,2.7361638E3,3.7454166E0,7.2465506E0,3.499768E0,1.2497064E0,6.2486224E0,1.7498125E0,1.4990278E0,1.2496558E0,1.8978653E1,2.2494938E0,1.249166E0,4.7430763E0,1.648993E1,1.17452755E1,2.6245697E1,6.2464185E0,2.2485454E0,1.748646E0,9.497049E0,1.9993101E1,3.3996037E1,1.1248287E1,1.8486937E1,7.61942E1,1.2741125E2,1.1940714E2,1.4613837E2,6.037704E2,7.2959694E1,2.0437476E2,6.249349E0,1.249871E0,2.1992722E2,5.9979696E0,6.4990063E0,7.52054E2,3.7395697E0,3.2476406E0,1.8076764E2,1.7474174E4,1.7508281E2,2.1203587E2,4.021938E2,8.36847E1,5.1207027E1,2.6750647E2,2.073518E1,1.7088129E2,1.5433833E3,5.2464527E1,4.3310806E3,1.468676E3,1.664591E3,1.0715729E3],"tree_param":{"num_deleted":"0","num_feature":"5","num_nodes":"117","size_leaf_vector":"1"}},{"base_weights":[2.8712003E-4,2.5345147E-1,-1.3323814E-2,9.269675E-1,1.9927953E-1,-1.6888117E-2,2.0259482E-1,4.8939496E-1,1.2647625E0,1.6675234E-1,5.0536907E-1,-1.3582999E-2,-1.9660254E-1,-7.927423E-2,4.3191612E-1,-3.0103836E-2,5.7350755E-1,1.3721013E0,9.9562E-2,2.5549534E-1,8.6331114E-2,2.0451142E-1,6.715628E-1,-3.0742263E-2,1.9784424E-2,-6.524019E-1,-1.7109433E-1,1.5472991E-2,-6.224436E-1,8.379893E-1,6.327965E-2,6.500878E-1,-3.2105687E-1,5.2983314E-1,1.5553586E0,4.1237257E-2,-2.5317803E-2,2.0953093E-1,6.3272095E-1,6.5813094E-1,4.6828356E-2,1.231033E0,3.269775E-2,8.402679E-1,2.2270557E-1,1.5557476E-2,-5.295977E-2,5.8989733E-2,-5.628856E-2,-8.183407E-1,5.476491E-1,-1.9156149E-2,-2.3143966E-1,6.1274004E-1,-5.907653E-2,2.4532689E-2,-7.1784323E-1,5.836417E-1,1.1556528E0,4.4175658E-1,-5.5954725E-2,9.616938E-3,2.4983175E-2,-2.9985473E-2,1.6072528E-2,3.8393635E-2,-1.2748646E-2,4.8161626E-2,-6.57893E-3,-6.916801E-3,7.198393E-3,-4.9721813E-3,2.052042E-2,2.845345E-2,-2.7528482E-3,-1.8103762E-3,5.986697E-3,4.743162E-2,1.5882306E-2,-1.4155545E-2,6.142993E-3,1.4549044E-2,3.4105416E-2,2.6579635E-2,-9.744904E-3,7.582801E-5,1.0033767E-2,-6.6423477E-3,-1.4422153E-3,2.4165735E-3,-2.0205006E-3,-3.918342E-3,7.500115E-4,1.1315203E-2,-2.8161278E-2,-5.4145623E-3,2.831802E-2,4.945286E-3,-8.752055E-3,-1.285295E-2,-2.905914E-3,1.0637476E-2,3.5966787E-2,1.840906E-2,-4.8506246E-3,-3.718073E-2,-1.3535452E-2,1.5267958E-2,3.5803374E-2,1.3444905E-2,3.927241E-2,2.616966E-2,3.587463E-3,-1.0025604E-2,5.337375E-3],"categories":[],"categories_nodes":[],"categories_segments":[],"categories_sizes":[],"default_left":[0,0,0,0,0,0,0,0,0,0,0,0,0,0,0,0,0,0,0,0,0,0,0,0,0,0,0,0,0,0,0,0,0,0,0,0,0,0,0,0,0,0,0,0,0,0,0,0,0,0,0,0,0,0,0,0,0,0,0,0,0,0,0,0,0,0,0,0,0,0,0,0,0,0,0,0,0,0,0,0,0,0,0,0,0,0,0,0,0,0,0,0,0,0,0,0,0,0,0,0,0,0,0,0,0,0,0,0,0,0,0,0,0,0,0],"id":3,"left_children":[1,3,5,7,9,11,13,15,17,19,21,23,25,27,29,-1,31,33,35,37,39,41,43,45,47,49,51,53,55,57,59,61,63,65,67,-1,-1,69,71,73,75,77,79,81,83,85,87,89,91,93,95,97,99,101,103,-1,105,107,109,111,113,-1,-1,-1,-1,-1,-1,-1,-1,-1,-1,-1,-1,-1,-1,-1,-1,-1,-1,-1,-1,-1,-1,-1,-1,-1,-1,-1,-1,-1,-1,-1,-1,-1,-1,-1,-1,-1,-1,-1,-1,-1,-1,-1,-1,-1,-1,-1,-1,-1,-1,-1,-1,-1,-1],"loss_changes":[1.0924808E2,5.8833733E1,2.3158455E1,1.7139656E1,1.4834496E1,1.7578728E1,3.1621696E1,7.3528175E0,8.264641E0,9.655388E0,7.035042E0,1.664264E1,6.1023083E0,1.1335122E1,4.030594E1,0E0,3.7525826E0,8.6573715E0,9.273025E0,1.103598E1,1.6070972E1,9.215854E0,6.776844E0,1.9746387E1,2.9445156E1,6.017874E0,4.6485996E0,8.422987E0,5.08119E0,9.684456E0,6.450933E0,2.6215115E0,3.2959347E0,9.4897995E0,4.7854233E0,0E0,0E0,7.760929E0,2.9584084E0,1.0099085E1,1.0944074E1,1.004178E0,4.088797E0,6.4540977E0,9.9058075E0,2.5865898E1,1.0665264E1,1.7753395E1,2.0289757E1,3.9476929E0,1.323634E0,7.3381405E0,9.585342E0,2.7510014E0,1.1721247E1,0E0,3.7811832E0,2.7284393E0,5.4907913E0,4.643542E0,7.163375E0,0E0,0E0,0E0,0E0,0E0,0E0,0E0,0E0,0E0,0E0,0E0,0E0,0E0,0E0,0E0,0E0,0E0,0E0,0E0,0E0,0E0,0E0,0E0,0E0,0E0,0E0,0E0,0E0,0E0,0E0,0E0,0E0,0E0,0E0,0E0,0E0,0E0,0E0,0E0,0E0,0E0,0E0,0E0,0E0,0E0,0E0,0E0,0E0,0E0,0E0,0E0,0E0,0E0,0E0],"parents":[2147483647,0,0,1,1,2,2,3,3,4,4,5,5,6,6,7,7,8,8,9,9,10,10,11,11,12,12,13,13,14,14,16,16,17,17,18,18,19,19,20,20,21,21,22,22,23,23,24,24,25,25,26,26,27,27,28,28,29,29,30,30,31,31,32,32,33,33,34,34,37,37,38,38,39,39,40,40,41,41,42,42,43,43,44,44,45,45,46,46,47,47,48,48,49,49,50,50,51,51,52,52,53,53,54,54,56,56,57,57,58,58,59,59,60,60],"right_children":[2,4,6,8,10,12,14,16,18,20,22,24,26,28,30,-1,32,34,36,38,40,42,44,46,48,50,52,54,56,58,60,62,64,66,68,-1,-1,70,72,74,76,78,80,82,84,86,88,90,92,94,96,98,100,102,104,-1,106,108,110,112,114,-1,-1,-1,-1,-1,-1,-1,-1,-1,-1,-1,-1,-1,-1,-1,-1,-1,-1,-1,-1,-1,-1,-1,-1,-1,-1,-1,-1,-1,-1,-1,-1,-1,-1,-1,-1,-1,-1,-1,-1,-1,-1,-1,-1,-1,-1,-1,-1,-1,-1,-1,-1,-1,-1],"split_conditions":[-3.799072E-2,-1.3468443E-1,7.532584E-1,8.105881E-1,7.0386237E-1,9.78803E-2,8.3898693E-1,1.6750108E-2,9.36284E-1,7.2833157E-1,8.3689857E-1,1.1025413E-2,2.5998296E-2,8.4107673E-1,8.221037E-3,-3.0103836E-2,7.8951937E-1,6.136372E-1,5.717494E-1,-4.729322E-2,-1.12762235E-1,7.13901E-1,9.2495203E-1,-1.2221346E-2,7.5646734E-1,8.823598E-1,2.696006E-1,4.008057E-1,-2.9190687E-2,8.1272215E-1,8.709467E-1,4.0926996E-1,8.03498E-1,-8.908477E-2,-5.9470415E-2,4.1237257E-2,-2.5317803E-2,6.2298708E-2,2.7896231E-2,-6.558954E-2,8.9943844E-1,-9.174759E-2,-7.405431E-2,7.688951E-1,7.688951E-1,9.461605E-1,3.7633903E-2,3.153252E-2,3.1769526E-1,1.7997403E-1,6.41288E-1,6.821135E-2,6.004982E-1,3.4782448E-1,-4.1222166E-2,2.4532689E-2,-4.726446E-3,9.553448E-1,-4.404265E-2,2.1932885E-2,4.715016E-2,9.616938E-3,2.4983175E-2,-2.9985473E-2,1.6072528E-2,3.8393635E-2,-1.2748646E-2,4.8161626E-2,-6.57893E-3,-6.916801E-3,7.198393E-3,-4.9721813E-3,2.052042E-2,2.845345E-2,-2.7528482E-3,-1.8103762E-3,5.986697E-3,4.743162E-2,1.5882306E-2,-1.4155545E-2,6.142993E-3,1.4549044E-2,3.4105416E-2,2.6579635E-2,-9.744904E-3,7.582801E-5,1.0033767E-2,-6.6423477E-3,-1.4422153E-3,2.4165735E-3,-2.0205006E-3,-3.918342E-3,7.500115E-4,1.1315203E-2,-2.8161278E-2,-5.4145623E-3,2.831802E-2,4.945286E-3,-8.752055E-3,-1.285295E-2,-2.905914E-3,1.0637476E-2,3.5966787E-2,1.840906E-2,-4.8506246E-3,-3.718073E-2,-1.3535452E-2,1.5267958E-2,3.5803374E-2,1.3444905E-2,3.927241E-2,2.616966E-2,3.587463E-3,-1.0025604E-2,5.337375E-3],"split_indices":[3,4,1,0,1,4,0,1,0,0,0,4,3,1,3,0,0,1,1,4,4,1,0,3,0,0,1,0,3,1,0,1,0,3,3,0,0,0,1,3,0,4,3,1,1,0,0,3,1,0,1,3,0,0,4,0,4,0,4,3,4,0,0,0,0,0,0,0,0,0,0,0,0,0,0,0,0,0,0,0,0,0,0,0,0,0,0,0,0,0,0,0,0,0,0,0,0,0,0,0,0,0,0,0,0,0,0,0,0,0,0,0,0,0,0],"split_type":[0,0,0,0,0,0,0,0,0,0,0,0,0,0,0,0,0,0,0,0,0,0,0,0,0,0,0,0,0,0,0,0,0,0,0,0,0,0,0,0,0,0,0,0,0,0,0,0,0,0,0,0,0,0,0,0,0,0,0,0,0,0,0,0,0,0,0,0,0,0,0,0,0,0,0,0,0,0,0,0,0,0,0,0,0,0,0,0,0,0,0,0,0,0,0,0,0,0,0,0,0,0,0,0,0,0,0,0,0,0,0,0,0,0,0],"sum_hessian":[3.1702695E4,1.6165793E3,3.0086115E4,1.1914508E2,1.4974343E3,2.9598438E4,4.876781E2,5.2973335E1,6.6171745E1,1.3549885E3,1.4244574E2,2.906498E4,5.3345703E2,2.1906717E2,2.6861093E2,2.242515E0,5.073082E1,6.0427567E1,5.744181E0,6.4313104E2,7.1185754E2,5.148105E1,9.096469E1,1.9194334E4,9.8706455E3,2.6969526E1,5.0648752E2,1.8735721E2,3.1709957E1,1.2720951E2,1.4140143E2,4.698215E1,3.748668E0,1.1493506E1,4.893406E1,2.2485824E0,3.495599E0,5.746644E2,6.846659E1,4.4988697E1,6.6686884E2,6.4972873E0,4.498376E1,6.548125E1,2.5483442E1,6.2240815E3,1.2970253E4,6.513859E3,3.3567869E3,2.397274E1,2.996786E0,1.4435251E2,3.6213498E2,1.9989384E1,1.6736783E2,1.4995844E0,3.0210373E1,7.222085E1,5.4988663E1,3.322687E1,1.0817456E2,1.7739225E1,2.9242926E1,1.9991186E0,1.7495494E0,6.2466097E0,5.246897E0,4.7685158E1,1.2489016E0,3.672333E1,5.379411E2,3.9981227E0,6.446847E1,3.22417E1,1.2747001E1,3.922321E2,2.7463678E2,3.4985356E0,2.9987516E0,1.0996624E1,3.3987137E1,3.0990313E1,3.4490936E1,1.1244169E1,1.4239273E1,5.980725E3,2.4335634E2,3.643477E2,1.2605905E4,5.564512E3,9.4934674E2,1.7532112E3,1.6035757E3,1.9977158E0,2.1975023E1,1.2480936E0,1.7486925E0,8.641502E1,5.7937492E1,1.460961E2,2.160389E2,1.4991608E1,4.9977756E0,2.149137E1,1.4587645E2,8.986885E0,2.1223488E1,6.597281E1,6.2480364E0,1.0498537E1,4.4490128E1,1.3490319E1,1.9736551E1,4.9205627E1,5.8968937E1],"tree_param":{"num_deleted":"0","num_feature":"5","num_nodes":"115","size_leaf_vector":"1"}},{"base_weights":[3.5243484E-3,2.3740222E-1,-9.051624E-3,8.2871664E-1,1.8823165E-1,4.670367E-2,-1.904007E-2,3.16854E-1,1.1251284E0,7.994036E-2,3.9105374E-1,3.530396E-2,4.1608927E-1,-4.0869996E-2,1.35273095E-2,2.0045994E-2,7.6292485E-1,1.2229674E0,-2.0094311E-1,1.6873357E-1,7.916268E-3,4.0835884E-1,-4.4612776E-2,2.293682E-2,3.018407E-1,4.555485E-1,-4.052312E-2,-5.6051624E-1,-3.8966488E-2,6.348379E-2,-4.3180227E-2,2.898244E-1,-5.085583E-1,-4.6486873E-2,3.2428127E-2,1.4440372E0,7.1721554E-1,-8.809953E-1,3.512004E-2,6.868593E-2,3.3293432E-1,-2.5218192E-1,1.1756453E-1,9.4709605E-1,3.621957E-1,1.0244575E-1,-1.0935997E-2,1.3008724E0,2.329736E-1,-2.3384655E-1,5.5349857E-1,-7.638407E-1,4.0342007E-2,-6.736528E-3,-6.4502425E-2,3.532649E-1,5.6019634E-2,-1.7150646E-2,-1.4471523E-1,1.8509457E-2,-8.339684E-3,1.1996694E-2,-2.686063E-2,6.945064E-3,-1.9301584E-2,1.9825071E-2,4.479675E-2,1.2001791E-2,4.4430602E-2,-3.797651E-2,-4.2247376E-3,1.7345227E-2,-4.2037296E-4,8.930608E-3,3.9169043E-2,-1.2372413E-3,-1.3246209E-2,1.4271365E-2,2.2011572E-3,7.660167E-3,3.435968E-2,1.5664171E-2,8.047236E-3,6.0616075E-3,5.404243E-5,-3.228006E-3,1.7105493E-3,-6.203408E-3,4.4603188E-2,-7.818652E-3,8.773257E-3,-1.9843435E-2,3.4440026E-2,2.5021229E-2,1.1252463E-2,2.1031064E-3,-4.072325E-2,2.6421378E-5,-7.902099E-3,-3.6742804E-3,-1.2000697E-3,-6.675759E-4,1.5209268E-2,1.1987146E-3,5.166565E-3,8.147538E-4,-2.2057618E-3,-5.7618855E-3,7.453801E-3],"categories":[],"categories_nodes":[],"categories_segments":[],"categories_sizes":[],"default_left":[0,0,0,0,0,0,0,0,0,0,0,0,0,0,0,0,0,0,0,0,0,0,0,0,0,0,0,0,0,0,0,0,0,0,0,0,0,0,0,0,0,0,0,0,0,0,0,0,0,0,0,0,0,0,0,0,0,0,0,0,0,0,0,0,0,0,0,0,0,0,0,0,0,0,0,0,0,0,0,0,0,0,0,0,0,0,0,0,0,0,0,0,0,0,0,0,0,0,0,0,0,0,0,0,0,0,0,0,0],"id":4,"left_children":[1,3,5,7,9,11,13,15,17,19,21,23,25,27,29,31,33,35,37,39,41,43,-1,45,47,49,-1,51,53,55,57,59,61,63,-1,65,67,69,-1,71,73,75,77,79,81,83,85,87,89,91,93,95,-1,97,99,101,103,105,107,-1,-1,-1,-1,-1,-1,-1,-1,-1,-1,-1,-1,-1,-1,-1,-1,-1,-1,-1,-1,-1,-1,-1,-1,-1,-1,-1,-1,-1,-1,-1,-1,-1,-1,-1,-1,-1,-1,-1,-1,-1,-1,-1,-1,-1,-1,-1,-1,-1,-1],"loss_changes":[9.352401E1,4.7020103E1,1.6805714E1,1.8498108E1,3.2898724E1,1.9291412E1,1.8194576E1,6.2027197E0,1.0405273E1,6.257522E0,1.756031E1,1.4657124E1,1.0178291E1,1.5133604E1,2.9098713E1,4.3154197E0,4.873266E0,7.133621E0,6.851256E0,7.1768513E0,1.5470313E1,1.2530319E1,0E0,1.1453814E1,1.3262943E1,9.239784E0,0E0,2.266063E1,1.2564501E1,1.17917385E1,1.2712357E1,3.884647E0,3.9559314E0,1.1850165E0,0E0,9.3387604E-1,5.272417E0,1.1726077E0,0E0,1.1535522E1,5.291395E0,6.40761E0,6.0038753E0,5.2247124E0,7.048977E0,1.2736555E1,1.9600328E1,3.8101826E0,5.526582E0,1.10922E1,5.614914E0,2.5390106E1,0E0,1.319702E1,1.2093533E1,7.9154816E0,9.931667E0,9.569967E0,1.8319876E1,0E0,0E0,0E0,0E0,0E0,0E0,0E0,0E0,0E0,0E0,0E0,0E0,0E0,0E0,0E0,0E0,0E0,0E0,0E0,0E0,0E0,0E0,0E0,0E0,0E0,0E0,0E0,0E0,0E0,0E0,0E0,0E0,0E0,0E0,0E0,0E0,0E0,0E0,0E0,0E0,0E0,0E0,0E0,0E0,0E0,0E0,0E0,0E0,0E0,0E0],"parents":[2147483647,0,0,1,1,2,2,3,3,4,4,5,5,6,6,7,7,8,8,9,9,10,10,11,11,12,12,13,13,14,14,15,15,16,16,17,17,18,18,19,19,20,20,21,21,23,23,24,24,25,25,27,27,28,28,29,29,30,30,31,31,32,32,33,33,35,35,36,36,37,37,39,39,40,40,41,41,42,42,43,43,44,44,45,45,46,46,47,47,48,48,49,49,50,50,51,51,53,53,54,54,55,55,56,56,57,57,58,58],"right_children":[2,4,6,8,10,12,14,16,18,20,22,24,26,28,30,32,34,36,38,40,42,44,-1,46,48,50,-1,52,54,56,58,60,62,64,-1,66,68,70,-1,72,74,76,78,80,82,84,86,88,90,92,94,96,-1,98,100,102,104,106,108,-1,-1,-1,-1,-1,-1,-1,-1,-1,-1,-1,-1,-1,-1,-1,-1,-1,-1,-1,-1,-1,-1,-1,-1,-1,-1,-1,-1,-1,-1,-1,-1,-1,-1,-1,-1,-1,-1,-1,-1,-1,-1,-1,-1,-1,-1,-1,-1,-1,-1],"split_conditions":[-3.799072E-2,-1.3468443E-1,-1.6232109E-2,7.69657E-1,2.8979591E1,1.5117158E-3,1.1974614E-2,2.0731707E1,9.4351214E-1,7.2833157E-1,5.4375E1,9.461605E-1,6.617647E1,1.4956002E1,1.7921742E-2,-8.908477E-2,4.162405E-1,-8.908477E-2,9.591047E-1,2.3088022E1,8.2821804E-1,-9.994808E-2,-4.4612776E-2,4.5086345E-1,-5.706905E-2,3.7339054E1,-4.052312E-2,2.1871985E-3,4.4827587E1,-8.13177E-3,8.5948056E-1,6.8218964E-1,1.0330659E1,3.0350146E-1,3.2428127E-2,1.0330659E1,2.8027555E1,1.9214876E1,3.512004E-2,1.0330659E1,7.1966326E-1,-5.184376E-2,-1.12762235E-1,4.8361441E-1,6.723775E-1,-2.321006E-2,3.015873E1,2E1,-3.437475E-2,9.3375677E-1,4.6511627E1,-2.2225957E-3,4.0342007E-2,6.4332685E-3,-2.5448853E-3,-1.2455385E-2,7.227357E1,3.153252E-2,8.2513664E1,1.8509457E-2,-8.339684E-3,1.1996694E-2,-2.686063E-2,6.945064E-3,-1.9301584E-2,1.9825071E-2,4.479675E-2,1.2001791E-2,4.4430602E-2,-3.797651E-2,-4.2247376E-3,1.7345227E-2,-4.2037296E-4,8.930608E-3,3.9169043E-2,-1.2372413E-3,-1.3246209E-2,1.4271365E-2,2.2011572E-3,7.660167E-3,3.435968E-2,1.5664171E-2,8.047236E-3,6.0616075E-3,5.404243E-5,-3.228006E-3,1.7105493E-3,-6.203408E-3,4.4603188E-2,-7.818652E-3,8.773257E-3,-1.9843435E-2,3.4440026E-2,2.5021229E-2,1.1252463E-2,2.1031064E-3,-4.072325E-2,2.6421378E-5,-7.902099E-3,-3.6742804E-3,-1.2000697E-3,-6.675759E-4,1.5209268E-2,1.1987146E-3,5.166565E-3,8.147538E-4,-2.2057618E-3,-5.7618855E-3,7.453801E-3],"split_indices":[3,4,3,0,2,4,4,2,0,0,2,0,2,2,3,3,0,3,0,2,0,4,0,0,4,2,0,3,2,3,0,0,2,0,0,2,2,2,0,2,0,3,4,0,0,3,2,2,3,0,2,3,0,3,3,3,2,3,2,0,0,0,0,0,0,0,0,0,0,0,0,0,0,0,0,0,0,0,0,0,0,0,0,0,0,0,0,0,0,0,0,0,0,0,0,0,0,0,0,0,0,0,0,0,0,0,0,0,0],"split_type":[0,0,0,0,0,0,0,0,0,0,0,0,0,0,0,0,0,0,0,0,0,0,0,0,0,0,0,0,0,0,0,0,0,0,0,0,0,0,0,0,0,0,0,0,0,0,0,0,0,0,0,0,0,0,0,0,0,0,0,0,0,0,0,0,0,0,0,0,0,0,0,0,0,0,0,0,0,0,0,0,0,0,0,0,0,0,0,0,0,0,0,0,0,0,0,0,0,0,0,0,0,0,0,0,0,0,0,0,0],"sum_hessian":[3.179573E4,1.6215508E3,3.017418E4,1.2327068E2,1.49828E3,4.583805E3,2.5590375E4,4.596477E1,7.7305916E1,9.7767267E2,5.2060736E2,4.4476406E3,1.3616426E2,1.532067E4,1.0269705E4,2.8227566E1,1.7737206E1,7.206652E1,5.239395E0,4.3726184E2,5.404108E2,5.1662976E2,3.9776196E0,4.2514614E3,1.9617918E2,1.339157E2,2.248565E0,5.484504E1,1.5265825E4,5.4597876E3,4.809917E3,1.8988377E1,9.239188E0,5.243973E0,1.2493233E1,4.8855854E1,2.3210665E1,3.7418559E0,1.4975392E0,2.7259055E2,1.6467133E2,1.5987326E2,3.8053757E2,3.923459E1,4.7739517E2,1.26952E3,2.9819417E3,1.1497612E1,1.8468158E2,1.6487246E1,1.1742845E2,5.009779E1,4.7472486E0,6.7489546E3,8.516871E3,1.3593791E2,5.3238496E3,3.829383E3,9.805342E2,1.1992223E1,6.996155E0,2.7489703E0,6.4902177E0,3.995391E0,1.2485819E0,3.7400026E0,4.511585E1,1.7477306E1,5.733359E0,1.9944724E0,1.7473836E0,3.7230347E1,2.3536018E2,1.6017323E2,4.4980946E0,7.620291E1,8.367036E1,4.072531E1,3.3981226E2,9.24838E0,2.998621E1,1.7497285E2,3.0242233E2,6.375391E2,6.3198096E2,1.2307008E3,1.7512408E3,1.2497579E0,1.0247854E1,1.9494225E1,1.6518735E2,1.29891815E1,3.498064E0,4.422083E1,7.320763E1,2.1198345E1,2.8899445E1,6.555403E3,1.9355173E2,2.5288816E3,5.9879893E3,3.9730633E1,9.6207275E1,4.678477E3,6.4537256E2,2.1444324E3,1.6849506E3,8.756024E2,1.0493177E2],"tree_param":{"num_deleted":"0","num_feature":"5","num_nodes":"109","size_leaf_vector":"1"}},{"base_weights":[-4.0827207E-3,5.7837963E-1,-8.658413E-3,-2.1250536E-1,7.349974E-1,1.391286E-1,-1.6652029E-2,3.818209E-1,-5.0242853E-1,9.130762E-1,5.391515E-1,4.641556E-2,2.946712E-1,-1.9348068E-2,2.6824066E-1,-2.5659839E-2,6.232238E-1,-8.963423E-1,2.0487514E-1,1.0064553E0,2.851613E-1,5.820412E-1,-4.014109E-1,4.1844705E-1,2.1034567E-2,3.1312793E-1,-1.2221458E0,-3.553001E-2,1.1635351E-2,5.498481E-1,2.6418693E-2,9.786927E-1,-1.7107138E-2,1.1918449E-3,-9.813515E-1,4.388912E-1,-2.2990251E-2,1.1226743E0,6.542379E-1,-7.687283E-2,8.977542E-1,6.942651E-1,3.2082096E-1,-2.7243972E-2,1.8658048E-2,1.11995615E-1,7.6963705E-1,-3.5723278E-1,4.3197367E-2,4.6720162E-1,2.178979E-1,-5.10984E-3,-4.216256E-2,-2.053179E-2,-9.401246E-2,5.95016E-2,-4.4378716E-2,-1.2428551E-1,8.442694E-1,-4.03336E-2,5.8276948E-2,-5.2922335E-3,3.735824E-2,-2.2643922E-2,-3.810576E-2,3.2091565E-2,-1.8132834E-3,3.456461E-2,-7.6962537E-3,1.4834984E-2,3.268462E-2,1.0459002E-2,-1.5811004E-2,1.2783084E-5,3.6454886E-2,1.55227175E-2,4.716601E-2,2.335303E-2,3.1753432E-3,-1.0305124E-2,1.629645E-2,-7.824223E-3,3.114547E-2,-2.2882698E-2,4.5232126E-3,-5.232062E-4,3.600849E-3,9.670555E-3,1.793991E-2,5.5447426E-3,3.6400754E-2,-8.7250094E-4,3.2692691E-3,-2.1122205E-3,-5.0927624E-3,8.9854E-3,1.4413586E-3,-2.2651902E-3,1.7043242E-3,2.5262676E-2,-1.810132E-2,2.177379E-2,4.1704416E-2,1.1723453E-2,-1.0142543E-3],"categories":[],"categories_nodes":[],"categories_segments":[],"categories_sizes":[],"default_left":[0,0,0,0,0,0,0,0,0,0,0,0,0,0,0,0,0,0,0,0,0,0,0,0,0,0,0,0,0,0,0,0,0,0,0,0,0,0,0,0,0,0,0,0,0,0,0,0,0,0,0,0,0,0,0,0,0,0,0,0,0,0,0,0,0,0,0,0,0,0,0,0,0,0,0,0,0,0,0,0,0,0,0,0,0,0,0,0,0,0,0,0,0,0,0,0,0,0,0,0,0,0,0,0,0],"id":5,"left_children":[1,3,5,7,9,11,13,15,17,19,21,23,25,27,29,-1,31,33,35,37,39,41,43,45,47,49,51,53,55,57,59,61,-1,-1,63,65,-1,67,69,71,73,75,77,-1,-1,79,81,83,85,87,89,-1,-1,91,93,95,97,99,101,-1,103,-1,-1,-1,-1,-1,-1,-1,-1,-1,-1,-1,-1,-1,-1,-1,-1,-1,-1,-1,-1,-1,-1,-1,-1,-1,-1,-1,-1,-1,-1,-1,-1,-1,-1,-1,-1,-1,-1,-1,-1,-1,-1,-1,-1],"loss_changes":[8.4629684E1,3.0814156E1,3.7221523E1,7.374984E0,6.720764E0,2.3301374E1,2.2963013E1,4.784815E0,8.110581E0,5.9799194E0,4.305538E0,9.567401E0,1.7280884E1,1.4846309E1,1.9071766E1,0E0,5.857086E0,1.5079336E0,2.8344064E0,3.0580597E0,3.4472272E0,2.6192093E0,3.154391E0,6.8788013E0,7.9834085E0,8.659779E0,1.1987505E0,1.7059814E1,2.7242992E1,2.579501E1,6.7096953E0,3.2965803E0,0E0,0E0,1.5122223E-1,3.0548472E0,0E0,3.0711746E0,1.2260284E0,2.1940672E0,1.6335092E0,9.58123E0,2.9664695E0,0E0,0E0,7.204698E0,8.568747E0,1.0974207E1,4.1891217E0,4.1121864E0,1.198753E1,0E0,0E0,1.7150139E1,7.086464E0,1.5050329E1,1.4751744E1,1.9127937E1,4.8257217E0,0E0,4.5860987E0,0E0,0E0,0E0,0E0,0E0,0E0,0E0,0E0,0E0,0E0,0E0,0E0,0E0,0E0,0E0,0E0,0E0,0E0,0E0,0E0,0E0,0E0,0E0,0E0,0E0,0E0,0E0,0E0,0E0,0E0,0E0,0E0,0E0,0E0,0E0,0E0,0E0,0E0,0E0,0E0,0E0,0E0,0E0,0E0],"parents":[2147483647,0,0,1,1,2,2,3,3,4,4,5,5,6,6,7,7,8,8,9,9,10,10,11,11,12,12,13,13,14,14,16,16,17,17,18,18,19,19,20,20,21,21,22,22,23,23,24,24,25,25,26,26,27,27,28,28,29,29,30,30,31,31,34,34,35,35,37,37,38,38,39,39,40,40,41,41,42,42,45,45,46,46,47,47,48,48,49,49,50,50,53,53,54,54,55,55,56,56,57,57,58,58,60,60],"right_children":[2,4,6,8,10,12,14,16,18,20,22,24,26,28,30,-1,32,34,36,38,40,42,44,46,48,50,52,54,56,58,60,62,-1,-1,64,66,-1,68,70,72,74,76,78,-1,-1,80,82,84,86,88,90,-1,-1,92,94,96,98,100,102,-1,104,-1,-1,-1,-1,-1,-1,-1,-1,-1,-1,-1,-1,-1,-1,-1,-1,-1,-1,-1,-1,-1,-1,-1,-1,-1,-1,-1,-1,-1,-1,-1,-1,-1,-1,-1,-1,-1,-1,-1,-1,-1,-1,-1,-1],"split_conditions":[-1.12762235E-1,2.4073283E-1,-3.5481647E-2,-8.908477E-2,-1.3468443E-1,2.8979591E1,7.869053E-1,2.0397779E-2,2.4093264E1,-7.405431E-2,8.4107673E-1,1.0330659E1,5.2547306E1,1.1974614E-2,9.997436E-3,-2.5659839E-2,1.9373006E-1,1.0330659E1,-3.9383974E-2,7.869053E-1,2.8378378E1,-6.558954E-2,2.36E1,4.18957E-1,1.3106796E1,-6.27907E-2,2.0641261E-1,5.2727272E1,1.7921742E-2,3.7535477E1,4.3777977E1,1.3106796E1,-1.7107138E-2,1.1918449E-3,1.5937574E-1,6.526494E-2,-2.2990251E-2,3.4482758E1,-8.908477E-2,4.530225E-1,4.831467E-1,2.8378378E1,2.0731707E1,-2.7243972E-2,1.8658048E-2,-7.681089E-2,-5.9470415E-2,3.9372867E-1,2.36E1,3.2608696E1,7.688951E-1,-5.10984E-3,-4.216256E-2,5.883445E-1,8.4589925E-3,-6.646883E-3,7.777778E1,-2.422437E-2,3.1112432E-2,-4.03336E-2,2.0400506E-2,-5.2922335E-3,3.735824E-2,-2.2643922E-2,-3.810576E-2,3.2091565E-2,-1.8132834E-3,3.456461E-2,-7.6962537E-3,1.4834984E-2,3.268462E-2,1.0459002E-2,-1.5811004E-2,1.2783084E-5,3.6454886E-2,1.55227175E-2,4.716601E-2,2.335303E-2,3.1753432E-3,-1.0305124E-2,1.629645E-2,-7.824223E-3,3.114547E-2,-2.2882698E-2,4.5232126E-3,-5.232062E-4,3.600849E-3,9.670555E-3,1.793991E-2,5.5447426E-3,3.6400754E-2,-8.7250094E-4,3.2692691E-3,-2.1122205E-3,-5.0927624E-3,8.9854E-3,1.4413586E-3,-2.2651902E-3,1.7043242E-3,2.5262676E-2,-1.810132E-2,2.177379E-2,4.1704416E-2,1.1723453E-2,-1.0142543E-3],"split_indices":[4,1,3,3,4,2,1,1,2,3,1,2,2,4,3,0,1,2,3,1,2,3,2,1,2,4,1,2,3,2,2,2,0,0,1,1,0,2,3,1,1,2,2,0,0,4,3,1,2,2,1,0,0,1,4,3,2,3,4,0,3,0,0,0,0,0,0,0,0,0,0,0,0,0,0,0,0,0,0,0,0,0,0,0,0,0,0,0,0,0,0,0,0,0,0,0,0,0,0,0,0,0,0,0,0],"split_type":[0,0,0,0,0,0,0,0,0,0,0,0,0,0,0,0,0,0,0,0,0,0,0,0,0,0,0,0,0,0,0,0,0,0,0,0,0,0,0,0,0,0,0,0,0,0,0,0,0,0,0,0,0,0,0,0,0,0,0,0,0,0,0,0,0,0,0,0,0,0,0,0,0,0,0,0,0,0,0,0,0,0,0,0,0,0,0,0,0,0,0,0,0,0,0,0,0,0,0,0,0,0,0,0,0],"sum_hessian":[3.1751094E4,2.4650775E2,3.1504586E4,4.0687595E1,2.0582016E2,1.6157622E3,2.9888824E4,1.3236512E1,2.7451082E1,1.0588177E2,9.993839E1,1.0131567E3,6.026056E2,2.960955E4,2.7927332E2,1.7459028E0,1.1490609E1,1.745996E1,9.991122E0,9.164945E1,1.4232309E1,9.5944496E1,3.9938962E0,6.3716816E1,9.494398E2,5.9614526E2,6.4603615E0,1.9450729E4,1.0158823E4,1.2843452E2,1.508388E2,8.99225E0,2.4983594E0,1.4979625E0,1.5961998E1,8.492858E0,1.4982641E0,6.726647E1,2.438298E1,9.4952545E0,4.737055E0,6.595255E1,2.9991945E1,2.7465134E0,1.2473829E0,3.473001E1,2.8986805E1,5.171233E1,8.977275E2,2.2622588E2,3.6991937E2,1.2449377E0,5.215424E0,1.5481694E4,3.9690332E3,5.4777803E3,4.6810435E3,3.9217186E1,8.921733E1,2.490048E0,1.4834875E2,1.7495786E0,7.2426715E0,1.0970448E1,4.99155E0,3.247666E0,5.2451916E0,6.602E1,1.24648E0,1.9399433E1,4.983547E0,4.9972396E0,4.498015E0,1.4994339E0,3.2376213E0,5.6218006E1,9.734548E0,8.748419E0,2.1243526E1,1.6988436E1,1.7741577E1,5.9985147E0,2.298829E1,2.8477924E1,2.3234404E1,5.0217053E2,3.9555698E2,1.0898957E2,1.172363E2,3.591719E2,1.0747451E1,1.4523463E4,9.582312E2,3.0274934E3,9.4154E2,2.4840968E2,5.2293706E3,3.5800212E3,1.1010221E3,1.274719E1,2.6469997E1,7.522107E1,1.3996264E1,3.1470486E1,1.16878265E2],"tree_param":{"num_deleted":"0","num_feature":"5","num_nodes":"105","size_leaf_vector":"1"}},{"base_weights":[2.4358328E-3,8.75399E-1,-1.0828954E-3,5.293726E-1,1.0968266E0,1.7642672E-1,-1.0674133E-2,-3.1343784E-2,5.8894956E-1,1.2551512E0,-8.8862576E-2,8.8745035E-2,3.3485475E-1,-1.4900136E-2,2.4480557E-1,9.4824696E-1,4.4563717E-1,9.5240855E-1,1.378895E0,4.61787E-1,-3.3921897E-2,1.2803964E-2,2.6034158E-1,2.8311086E-1,8.9117455E-1,-1.8340012E-2,1.23568445E-1,-3.3150516E-2,4.6725747E-1,4.161664E-4,1.1095208E0,-2.2859068E-1,5.317493E-1,1.0566825E0,3.985586E-1,4.316643E-2,3.164922E-1,-5.5685155E-3,2.697608E-2,1.8270706E-1,-5.486576E-2,7.3730654E-1,1.9265772E-1,2.9773113E-1,-4.238619E-2,2.6463312E-1,3.8495626E-2,-2.1491101E-2,1.1163508E-1,2.963975E-1,1.6058214E-2,5.1173247E-2,-5.497301E-1,8.6585164E-1,1.1086785E-1,-4.8058614E-4,3.839869E-2,1.5881855E-2,-2.3989735E-2,2.1949206E-2,7.1380986E-3,1.5235635E-2,3.7370663E-2,-7.4850013E-3,2.3795672E-2,3.4221478E-2,-2.2212436E-2,3.234916E-2,-2.2594431E-2,-5.3190263E-3,1.2426755E-2,-4.5680846E-3,4.822599E-3,2.3302883E-2,-5.7066685E-5,1.1216999E-2,3.037254E-3,1.2736193E-2,3.8053992E-3,1.4827628E-2,-2.3315359E-2,-4.870882E-4,-3.3169047E-3,4.94947E-3,-4.49362E-3,7.003068E-3,2.3111856E-2,2.813431E-2,8.557079E-5,1.0837758E-2,-9.853805E-4,-8.667533E-3,-3.1282824E-2,9.389749E-3,3.152228E-2,-3.9690696E-2,4.2841383E-3],"categories":[],"categories_nodes":[],"categories_segments":[],"categories_sizes":[],"default_left":[0,0,0,0,0,0,0,0,0,0,0,0,0,0,0,0,0,0,0,0,0,0,0,0,0,0,0,0,0,0,0,0,0,0,0,0,0,0,0,0,0,0,0,0,0,0,0,0,0,0,0,0,0,0,0,0,0,0,0,0,0,0,0,0,0,0,0,0,0,0,0,0,0,0,0,0,0,0,0,0,0,0,0,0,0,0,0,0,0,0,0,0,0,0,0,0,0],"id":6,"left_children":[1,3,5,7,9,11,13,-1,15,17,19,21,23,25,27,29,31,33,35,37,-1,39,41,43,45,47,49,51,53,-1,55,57,59,61,63,-1,65,67,-1,69,71,73,75,77,-1,79,-1,81,83,85,87,89,91,93,95,-1,-1,-1,-1,-1,-1,-1,-1,-1,-1,-1,-1,-1,-1,-1,-1,-1,-1,-1,-1,-1,-1,-1,-1,-1,-1,-1,-1,-1,-1,-1,-1,-1,-1,-1,-1,-1,-1,-1,-1,-1,-1],"loss_changes":[9.753922E1,9.186829E0,5.384828E1,5.4618034E0,1.452919E1,2.249271E1,3.240074E1,0E0,2.1742592E0,1.2274933E0,6.248411E0,1.3615144E1,1.6365242E1,1.4062828E1,3.0210247E1,2.0179253E0,2.3242407E0,9.020252E-1,2.4704132E0,1.4850703E0,0E0,8.351375E0,1.0206524E1,1.355291E1,1.1611523E1,1.1799779E1,1.3293296E1,9.5250435E0,3.8445915E1,0E0,2.2255259E0,2.5859473E0,1.8193798E0,1.3046322E0,1.5368965E0,0E0,4.0988197E0,4.453574E0,0E0,1.7316748E1,1.0937654E1,1.153038E0,4.6357203E0,1.1342575E1,0E0,5.1654644E0,0E0,1.3161844E1,9.535567E0,8.009535E0,5.3809466E0,4.9187136E0,3.643752E0,1.2747803E1,6.801055E0,0E0,0E0,0E0,0E0,0E0,0E0,0E0,0E0,0E0,0E0,0E0,0E0,0E0,0E0,0E0,0E0,0E0,0E0,0E0,0E0,0E0,0E0,0E0,0E0,0E0,0E0,0E0,0E0,0E0,0E0,0E0,0E0,0E0,0E0,0E0,0E0,0E0,0E0,0E0,0E0,0E0,0E0],"parents":[2147483647,0,0,1,1,2,2,3,3,4,4,5,5,6,6,8,8,9,9,10,10,11,11,12,12,13,13,14,14,15,15,16,16,17,17,18,18,19,19,21,21,22,22,23,23,24,24,25,25,26,26,27,27,28,28,30,30,31,31,32,32,33,33,34,34,36,36,37,37,39,39,40,40,41,41,42,42,43,43,45,45,47,47,48,48,49,49,50,50,51,51,52,52,53,53,54,54],"right_children":[2,4,6,8,10,12,14,-1,16,18,20,22,24,26,28,30,32,34,36,38,-1,40,42,44,46,48,50,52,54,-1,56,58,60,62,64,-1,66,68,-1,70,72,74,76,78,-1,80,-1,82,84,86,88,90,92,94,96,-1,-1,-1,-1,-1,-1,-1,-1,-1,-1,-1,-1,-1,-1,-1,-1,-1,-1,-1,-1,-1,-1,-1,-1,-1,-1,-1,-1,-1,-1,-1,-1,-1,-1,-1,-1,-1,-1,-1,-1,-1,-1],"split_conditions":[-8.908477E-2,8.1930053E-1,-3.6646497E-2,1.1063962E-2,9.4351214E-1,2.8979591E1,7.532584E-1,-3.1343784E-2,4.3151793E-1,6.4934874E-1,7.688951E-1,5.123747E-1,7.0386237E-1,9.461605E-1,8.3898693E-1,1.1228736E-1,4.9723676E-1,2.8378378E1,9.269735E-1,1.9214876E1,-3.3921897E-2,4.5557564E-1,1.3106796E1,5.3846153E1,8.7668365E-1,8.148148E1,-9.574406E-3,8.4107673E-1,8.221037E-3,4.161664E-4,6.526494E-2,1.746134E1,7.0386237E-1,1.6346153E1,3.1034483E1,4.316643E-2,8.1272215E-1,1.3106796E1,2.697608E-2,-5.184376E-2,8.823598E-1,8.4107673E-1,7.722511E-1,8.082484E-1,-4.238619E-2,3.974359E1,3.8495626E-2,3.153252E-2,6.821135E-2,4.3953487E1,1.1063962E-2,-1.1535953E-2,7.665518E1,3.7127483E1,4.326923E1,-4.8058614E-4,3.839869E-2,1.5881855E-2,-2.3989735E-2,2.1949206E-2,7.1380986E-3,1.5235635E-2,3.7370663E-2,-7.4850013E-3,2.3795672E-2,3.4221478E-2,-2.2212436E-2,3.234916E-2,-2.2594431E-2,-5.3190263E-3,1.2426755E-2,-4.5680846E-3,4.822599E-3,2.3302883E-2,-5.7066685E-5,1.1216999E-2,3.037254E-3,1.2736193E-2,3.8053992E-3,1.4827628E-2,-2.3315359E-2,-4.870882E-4,-3.3169047E-3,4.94947E-3,-4.49362E-3,7.003068E-3,2.3111856E-2,2.813431E-2,8.557079E-5,1.0837758E-2,-9.853805E-4,-8.667533E-3,-3.1282824E-2,9.389749E-3,3.152228E-2,-3.9690696E-2,4.2841383E-3],"split_indices":[3,0,3,1,0,2,1,0,0,1,1,1,1,0,0,0,0,2,0,2,0,0,2,2,0,2,3,1,3,0,1,2,1,2,2,0,1,2,0,3,0,1,0,0,0,2,0,3,3,2,1,3,2,2,2,0,0,0,0,0,0,0,0,0,0,0,0,0,0,0,0,0,0,0,0,0,0,0,0,0,0,0,0,0,0,0,0,0,0,0,0,0,0,0,0,0,0],"split_type":[0,0,0,0,0,0,0,0,0,0,0,0,0,0,0,0,0,0,0,0,0,0,0,0,0,0,0,0,0,0,0,0,0,0,0,0,0,0,0,0,0,0,0,0,0,0,0,0,0,0,0,0,0,0,0,0,0,0,0,0,0,0,0,0,0,0,0,0,0,0,0,0,0,0,0,0,0,0,0,0,0,0,0,0,0,0,0,0,0,0,0,0,0,0,0,0,0],"sum_hessian":[3.1752635E4,1.2647952E2,3.1626154E4,5.0676983E1,7.5802536E1,1.6203407E3,3.0005814E4,1.2449723E0,4.943201E1,6.6821335E1,8.981205E0,1.0440651E3,5.762757E2,2.9518479E4,4.8733655E2,1.2493359E1,3.6938652E1,2.1911331E1,4.491E1,6.2399993E0,2.7412057E0,7.245055E2,3.1955957E2,5.286173E2,4.7658344E1,2.8803793E4,7.1468445E2,2.1701941E2,2.7031714E2,1.9988146E0,1.0494544E1,3.996091E0,3.2942562E1,1.7675638E1,4.2356944E0,4.2174362E1,2.7356372E0,3.4940557E0,2.7459438E0,2.0588234E2,5.186231E2,3.8482418E1,2.8107715E2,5.2491675E2,3.7006083E0,1.8987043E1,2.8671299E1,2.8122824E4,6.809691E2,2.73408E2,4.4127646E2,1.8733995E2,2.9679459E1,1.2692824E2,1.433889E2,1.499302E0,8.995242E0,1.748394E0,2.2476969E0,1.871794E1,1.4224623E1,5.472326E0,1.2203312E1,1.7422876E0,2.4934068E0,1.4924558E0,1.2431815E0,1.2456542E0,2.2484014E0,8.06722E1,1.2521014E2,3.5744485E2,1.6117828E2,3.6484222E1,1.998198E0,9.3202576E1,1.8787457E2,3.0046536E2,2.2445137E2,1.598864E1,2.9984035E0,2.655726E4,1.5655635E3,5.658647E2,1.1510446E2,2.4266667E2,3.0741331E1,5.243902E0,4.3603256E2,3.9235584E1,1.4810435E2,2.0448332E1,9.231127E0,3.2484905E1,9.444333E1,2.2432995E0,1.411456E2],"tree_param":{"num_deleted":"0","num_feature":"5","num_nodes":"97","size_leaf_vector":"1"}},{"base_weights":[5.866079E-4,2.32968E-1,-1.176671E-2,8.136777E-1,1.8499705E-1,-1.5383698E-2,2.0284072E-1,-3.0291867E-2,8.757501E-1,9.5219515E-2,3.520697E-1,-1.2845517E-2,-1.8808441E-1,4.6734744E-1,3.6429554E-2,9.7932833E-1,1.8660839E-1,-2.4791935E-2,1.6959526E-1,3.7407E-1,-1.1093208E0,-1.8966885E-2,8.43572E-2,-2.3322096E-1,2.3409052E-1,1.7891522E-1,7.000069E-1,-4.3675587E-2,7.968236E-2,5.7141614E-1,1.0798869E0,-1.5121834E-1,8.617762E-1,-1.3092037E-1,1.8374793E-1,5.048871E-1,1.4211491E-1,7.420931E-1,3.206661E-1,1.5664991E-3,-4.1609164E-2,2.365014E-2,-3.0533513E-2,2.8853592E-1,5.241146E-2,-2.715654E-1,-6.4592985E-3,5.206869E-1,8.3880804E-2,7.1754956E-1,-1.9849472E-1,3.208162E-1,9.1677004E-1,2.738517E-1,-1.867682E-2,4.4228822E-2,1.0268092E-2,3.5081748E-2,2.5527092E-2,-1.564485E-2,4.218668E-3,5.064414E-3,3.373077E-2,-7.581016E-3,2.188278E-3,2.2574931E-2,2.3439385E-3,2.402371E-2,4.4303173E-3,-1.1830719E-3,5.6592664E-3,9.878396E-3,3.0763242E-2,8.65834E-3,2.134018E-2,7.4452546E-4,-4.0533207E-2,-1.9550342E-2,-8.7661826E-4,6.821865E-3,2.4987355E-2,-1.813131E-2,2.0420842E-3,-1.4920893E-2,-6.951625E-3,1.6623255E-2,-8.017067E-3,-6.995797E-3,2.5933485E-2,-6.619076E-3,1.26132555E-2,3.2654487E-2,8.761731E-3,-3.1813826E-2,-2.8514399E-3,3.7343837E-2,6.3889157E-3,3.8239695E-3,3.0524787E-2,2.3040956E-2,4.8314636E-3,-4.96828E-3,5.662226E-3],"categories":[],"categories_nodes":[],"categories_segments":[],"categories_sizes":[],"default_left":[0,0,0,0,0,0,0,0,0,0,0,0,0,0,0,0,0,0,0,0,0,0,0,0,0,0,0,0,0,0,0,0,0,0,0,0,0,0,0,0,0,0,0,0,0,0,0,0,0,0,0,0,0,0,0,0,0,0,0,0,0,0,0,0,0,0,0,0,0,0,0,0,0,0,0,0,0,0,0,0,0,0,0,0,0,0,0,0,0,0,0,0,0,0,0,0,0,0,0,0,0,0,0],"id":7,"left_children":[1,3,5,7,9,11,13,-1,15,17,19,21,23,25,27,29,31,33,35,37,39,41,43,45,47,49,51,-1,53,55,57,59,61,63,65,67,69,71,73,-1,-1,75,77,79,81,83,85,87,89,91,93,95,97,99,101,-1,-1,-1,-1,-1,-1,-1,-1,-1,-1,-1,-1,-1,-1,-1,-1,-1,-1,-1,-1,-1,-1,-1,-1,-1,-1,-1,-1,-1,-1,-1,-1,-1,-1,-1,-1,-1,-1,-1,-1,-1,-1,-1,-1,-1,-1,-1,-1],"loss_changes":[9.109891E1,4.4471954E1,2.339291E1,1.4684929E1,2.2179005E1,1.29875E1,2.1969606E1,0E0,8.272453E0,8.614578E0,1.7045105E1,1.7379452E1,8.232244E0,1.2813786E1,1.9976063E1,3.5972672E0,3.942318E0,8.212056E0,5.4168453E0,9.791946E0,2.6277924E0,1.3544785E1,1.127206E1,3.3736534E0,1.7622342E0,1.7916039E1,8.44989E0,0E0,5.7340884E0,4.1385446E0,6.711731E-1,1.3689803E0,8.5152483E-1,6.1199956E0,7.461504E0,4.609887E0,4.669815E0,7.137726E0,5.39769E0,0E0,0E0,9.447562E0,1.7605116E1,7.595438E0,1.5442124E1,2.8719273E0,8.505744E0,3.8903193E0,3.035812E0,5.4015846E0,4.553138E0,3.7441535E0,5.2087784E0,5.502423E0,6.1279545E0,0E0,0E0,0E0,0E0,0E0,0E0,0E0,0E0,0E0,0E0,0E0,0E0,0E0,0E0,0E0,0E0,0E0,0E0,0E0,0E0,0E0,0E0,0E0,0E0,0E0,0E0,0E0,0E0,0E0,0E0,0E0,0E0,0E0,0E0,0E0,0E0,0E0,0E0,0E0,0E0,0E0,0E0,0E0,0E0,0E0,0E0,0E0,0E0],"parents":[2147483647,0,0,1,1,2,2,3,3,4,4,5,5,6,6,8,8,9,9,10,10,11,11,12,12,13,13,14,14,15,15,16,16,17,17,18,18,19,19,20,20,21,21,22,22,23,23,24,24,25,25,26,26,28,28,29,29,30,30,31,31,32,32,33,33,34,34,35,35,36,36,37,37,38,38,41,41,42,42,43,43,44,44,45,45,46,46,47,47,48,48,49,49,50,50,51,51,52,52,53,53,54,54],"right_children":[2,4,6,8,10,12,14,-1,16,18,20,22,24,26,28,30,32,34,36,38,40,42,44,46,48,50,52,-1,54,56,58,60,62,64,66,68,70,72,74,-1,-1,76,78,80,82,84,86,88,90,92,94,96,98,100,102,-1,-1,-1,-1,-1,-1,-1,-1,-1,-1,-1,-1,-1,-1,-1,-1,-1,-1,-1,-1,-1,-1,-1,-1,-1,-1,-1,-1,-1,-1,-1,-1,-1,-1,-1,-1,-1,-1,-1,-1,-1,-1,-1,-1,-1,-1,-1,-1],"split_conditions":[-3.799072E-2,-1.3468443E-1,7.532584E-1,4.088126E-2,2.8979591E1,6.1478768E-2,2.978509E-3,-3.0291867E-2,-7.405431E-2,2.8807688E-1,5.079365E1,7.468355E1,8.966374E1,3.935484E1,4.326923E1,4.831467E-1,2.9276155E1,2.4093264E1,1.0330659E1,-9.174759E-2,3.2522717E-1,-1.3195272E-2,1.330771E-2,6.6626847E-1,4.3558568E-1,-2.422437E-2,7.869053E-1,-4.3675587E-2,1.9110896E-2,1.1452361E-1,7.869053E-1,2E1,4.831467E-1,-6.7547254E-2,3.5282183E-2,-5.184376E-2,1.746134E1,4.1247368E-1,-2.672726E-2,1.5664991E-3,-4.1609164E-2,6.516245E1,1.4956002E1,1.27393985E-2,1.9549575E-2,6.8085106E1,1.0615233E-1,1.5733257E-1,6.4934874E-1,-5.101109E-2,-6.27907E-2,4.0528633E1,-3.705806E-2,5.1851852E1,5.2388288E-2,4.4228822E-2,1.0268092E-2,3.5081748E-2,2.5527092E-2,-1.564485E-2,4.218668E-3,5.064414E-3,3.373077E-2,-7.581016E-3,2.188278E-3,2.2574931E-2,2.3439385E-3,2.402371E-2,4.4303173E-3,-1.1830719E-3,5.6592664E-3,9.878396E-3,3.0763242E-2,8.65834E-3,2.134018E-2,7.4452546E-4,-4.0533207E-2,-1.9550342E-2,-8.7661826E-4,6.821865E-3,2.4987355E-2,-1.813131E-2,2.0420842E-3,-1.4920893E-2,-6.951625E-3,1.6623255E-2,-8.017067E-3,-6.995797E-3,2.5933485E-2,-6.619076E-3,1.26132555E-2,3.2654487E-2,8.761731E-3,-3.1813826E-2,-2.8514399E-3,3.7343837E-2,6.3889157E-3,3.8239695E-3,3.0524787E-2,2.3040956E-2,4.8314636E-3,-4.96828E-3,5.662226E-3],"split_indices":[3,4,1,1,2,3,3,0,3,1,2,2,2,2,2,1,2,2,2,4,1,3,3,1,1,3,1,0,3,1,1,2,1,4,1,3,2,1,4,0,0,2,2,3,4,2,4,1,1,4,4,2,4,2,3,0,0,0,0,0,0,0,0,0,0,0,0,0,0,0,0,0,0,0,0,0,0,0,0,0,0,0,0,0,0,0,0,0,0,0,0,0,0,0,0,0,0,0,0,0,0,0,0],"split_type":[0,0,0,0,0,0,0,0,0,0,0,0,0,0,0,0,0,0,0,0,0,0,0,0,0,0,0,0,0,0,0,0,0,0,0,0,0,0,0,0,0,0,0,0,0,0,0,0,0,0,0,0,0,0,0,0,0,0,0,0,0,0,0,0,0,0,0,0,0,0,0,0,0,0,0,0,0,0,0,0,0,0,0,0,0,0,0,0,0,0,0,0,0,0,0,0,0,0,0,0,0,0,0],"sum_hessian":[3.173229E4,1.6008291E3,3.013146E4,1.2093199E2,1.4798971E3,2.9632955E4,4.985047E2,3.4786298E0,1.1745336E2,9.6364594E2,5.1625116E2,2.9204807E4,4.2814844E2,1.9181337E2,3.066913E2,1.0174063E2,1.5712728E1,3.689619E2,5.94684E2,5.093276E2,6.923563E0,2.7475346E4,1.7294623E3,3.8719888E2,4.094955E1,8.643157E1,1.053818E2,7.71891E0,2.989724E2,2.1442476E1,8.029816E1,1.0989869E1,4.722859E0,2.447685E2,1.24193405E2,4.3731922E1,5.509521E2,6.290862E1,4.4641898E2,1.4923486E0,5.4312143E0,5.8649614E3,2.1610383E4,2.3289569E2,1.4965667E3,3.3102618E2,5.6172714E1,1.3233658E1,2.771589E1,3.5238464E1,5.1193108E1,3.923201E1,6.614979E1,9.992594E1,1.9904648E2,3.2404938E0,1.8201982E1,5.4779293E1,2.5518862E1,4.497142E0,6.4927273E0,1.7493036E0,2.9735553E0,1.530829E2,9.16856E1,1.8491446E1,1.05701965E2,2.3239304E1,2.0492619E1,1.1242393E2,4.385282E2,2.6484772E1,3.6423847E1,4.141747E2,3.2244274E1,5.860967E3,3.9948933E0,4.4536377E1,2.1565848E4,2.1065424E2,2.224146E1,3.397229E1,1.4625944E3,4.7929405E1,2.8309677E2,1.7477669E1,3.8695045E1,4.245285E0,8.988374E0,1.4731466E1,1.2984426E1,1.7993769E1,1.7244696E1,4.494186E0,4.669892E1,2.9988651E0,3.6233147E1,7.7424364E0,5.840735E1,1.7490942E1,8.2435E1,1.16629166E2,8.2417305E1],"tree_param":{"num_deleted":"0","num_feature":"5","num_nodes":"103","size_leaf_vector":"1"}},{"base_weights":[1.20549186E-4,7.9552025E-1,-2.8708237E-3,3.9103135E-1,1.0929513E0,1.3547012E-1,-1.2813412E-2,-3.0373208E-2,4.814806E-1,1.2188736E0,-2.93614E-1,1.1075286E-1,3.9524412E-1,-1.56095335E-2,2.0074894E-1,6.254845E-1,3.5677566E-3,7.617517E-1,1.3059527E0,2.814682E-2,-3.1462617E-2,2.21442E-1,4.6622448E-2,8.046777E-2,6.028574E-1,-3.0444067E-2,1.2565191E-2,-1.1869678E-1,4.3444616E-1,-4.689074E-3,6.788636E-1,4.8768237E-1,-3.1524964E-2,8.985765E-1,-7.793733E-3,8.553829E-1,1.406632E0,1.3770191E-1,3.4951648E-1,4.2474505E-1,7.138138E-3,2.3902899E-1,-1.029524E0,-2.0529494E-1,7.00669E-1,-3.9803706E-2,5.2013036E-2,3.3692345E-2,-9.579022E-2,7.20525E-1,-1.9200075E-1,8.56771E-1,1.823294E-1,3.54393E-2,1.5667973E-2,-1.9944452E-2,2.2522366E-2,3.0436981E-2,7.2442014E-3,3.869957E-2,3.36085E-3,4.337415E-2,2.7009414E-3,-7.95394E-3,5.7134675E-3,1.7938651E-2,7.468739E-3,1.4128143E-2,-1.007922E-2,-4.012108E-4,9.902565E-3,-2.486739E-3,2.3142034E-2,-3.7643377E-2,7.610083E-3,6.36998E-3,-2.8599227E-2,2.3844019E-2,6.9422955E-3,-9.770639E-4,-3.695799E-3,4.2485567E-3,-1.9188499E-3,1.4378021E-3,-3.2670326E-3,-5.837417E-3,-2.2715084E-4,8.858622E-3,3.7980683E-2,8.216527E-3,-8.451373E-3,2.1486696E-2,3.8455315E-2,-3.8094292E-3,1.0758486E-2],"categories":[],"categories_nodes":[],"categories_segments":[],"categories_sizes":[],"default_left":[0,0,0,0,0,0,0,0,0,0,0,0,0,0,0,0,0,0,0,0,0,0,0,0,0,0,0,0,0,0,0,0,0,0,0,0,0,0,0,0,0,0,0,0,0,0,0,0,0,0,0,0,0,0,0,0,0,0,0,0,0,0,0,0,0,0,0,0,0,0,0,0,0,0,0,0,0,0,0,0,0,0,0,0,0,0,0,0,0,0,0,0,0,0,0],"id":8,"left_children":[1,3,5,7,9,11,13,-1,15,17,19,21,23,25,27,29,31,33,35,-1,-1,37,39,41,43,45,47,49,51,-1,53,55,-1,57,-1,59,61,63,65,67,69,71,73,75,77,79,81,83,85,87,89,91,93,-1,-1,-1,-1,-1,-1,-1,-1,-1,-1,-1,-1,-1,-1,-1,-1,-1,-1,-1,-1,-1,-1,-1,-1,-1,-1,-1,-1,-1,-1,-1,-1,-1,-1,-1,-1,-1,-1,-1,-1,-1,-1],"loss_changes":[7.570151E1,1.3914177E1,4.3599987E1,7.0973864E0,1.2254654E1,1.3603287E1,1.7662329E1,0E0,3.4109688E0,1.4993668E0,7.0105095E0,1.3776035E1,1.1993952E1,1.2201181E1,2.8588337E1,1.6963015E0,6.8876977E0,1.9702497E0,1.1208801E0,0E0,0E0,7.590019E0,1.8375038E1,1.3338678E1,8.908733E0,1.4760704E1,2.3054173E1,1.0121816E1,2.3371746E1,0E0,2.2043686E0,3.301234E0,0E0,6.0730743E-1,0E0,3.702794E0,1.9495544E0,9.235575E0,6.868973E0,4.247408E0,7.394338E0,1.1358395E1,3.060361E0,4.18375E0,4.195198E0,1.0357529E1,2.0271458E1,1.7109829E1,1.4319418E1,2.6989846E0,6.348036E0,4.0006943E0,7.6596866E0,0E0,0E0,0E0,0E0,0E0,0E0,0E0,0E0,0E0,0E0,0E0,0E0,0E0,0E0,0E0,0E0,0E0,0E0,0E0,0E0,0E0,0E0,0E0,0E0,0E0,0E0,0E0,0E0,0E0,0E0,0E0,0E0,0E0,0E0,0E0,0E0,0E0,0E0,0E0,0E0,0E0,0E0],"parents":[2147483647,0,0,1,1,2,2,3,3,4,4,5,5,6,6,8,8,9,9,10,10,11,11,12,12,13,13,14,14,15,15,16,16,17,17,18,18,21,21,22,22,23,23,24,24,25,25,26,26,27,27,28,28,30,30,31,31,33,33,35,35,36,36,37,37,38,38,39,39,40,40,41,41,42,42,43,43,44,44,45,45,46,46,47,47,48,48,49,49,50,50,51,51,52,52],"right_children":[2,4,6,8,10,12,14,-1,16,18,20,22,24,26,28,30,32,34,36,-1,-1,38,40,42,44,46,48,50,52,-1,54,56,-1,58,-1,60,62,64,66,68,70,72,74,76,78,80,82,84,86,88,90,92,94,-1,-1,-1,-1,-1,-1,-1,-1,-1,-1,-1,-1,-1,-1,-1,-1,-1,-1,-1,-1,-1,-1,-1,-1,-1,-1,-1,-1,-1,-1,-1,-1,-1,-1,-1,-1,-1,-1,-1,-1,-1,-1],"split_conditions":[-1.3468443E-1,8.03498E-1,-3.2480877E-2,1.6750108E-2,9.41043E-1,7.0386237E-1,7.688951E-1,-3.0373208E-2,-7.405431E-2,8.3689857E-1,5.8262765E-1,6.0439205E-1,-5.9470415E-2,1.1974614E-2,8.3898693E-1,1.3690251E-1,5.25939E-1,8.3251894E-1,6.136372E-1,2.814682E-2,-3.1462617E-2,3.026622E-1,-9.994808E-2,9.4351214E-1,6.304164E-1,9.01398E-1,8.6519724E-1,4.008057E-1,2.978509E-3,-4.689074E-3,4.5557564E-1,1.434845E-1,-3.1524964E-2,7.688951E-1,-7.793733E-3,-8.908477E-2,9.269735E-1,7.436179E-2,2.0382644E-1,9.553448E-1,-2.61959E-2,8.747893E-1,9.635833E-1,5.402936E-1,-4.5042824E-2,8.0004465E-3,-6.124745E-3,8.065366E-2,3.1769526E-1,3.4261227E-1,-1.2932489E-2,3.8998616E-3,3.4572434E-2,3.54393E-2,1.5667973E-2,-1.9944452E-2,2.2522366E-2,3.0436981E-2,7.2442014E-3,3.869957E-2,3.36085E-3,4.337415E-2,2.7009414E-3,-7.95394E-3,5.7134675E-3,1.7938651E-2,7.468739E-3,1.4128143E-2,-1.007922E-2,-4.012108E-4,9.902565E-3,-2.486739E-3,2.3142034E-2,-3.7643377E-2,7.610083E-3,6.36998E-3,-2.8599227E-2,2.3844019E-2,6.9422955E-3,-9.770639E-4,-3.695799E-3,4.2485567E-3,-1.9188499E-3,1.4378021E-3,-3.2670326E-3,-5.837417E-3,-2.2715084E-4,8.858622E-3,3.7980683E-2,8.216527E-3,-8.451373E-3,2.1486696E-2,3.8455315E-2,-3.8094292E-3,1.0758486E-2],"split_indices":[4,0,3,1,0,1,1,0,3,0,1,0,3,4,0,0,1,0,1,0,0,1,4,0,0,0,0,0,3,0,0,1,0,1,0,3,0,0,0,0,4,0,0,0,4,3,3,4,1,0,3,4,4,0,0,0,0,0,0,0,0,0,0,0,0,0,0,0,0,0,0,0,0,0,0,0,0,0,0,0,0,0,0,0,0,0,0,0,0,0,0,0,0,0,0],"split_type":[0,0,0,0,0,0,0,0,0,0,0,0,0,0,0,0,0,0,0,0,0,0,0,0,0,0,0,0,0,0,0,0,0,0,0,0,0,0,0,0,0,0,0,0,0,0,0,0,0,0,0,0,0,0,0,0,0,0,0,0,0,0,0,0,0,0,0,0,0,0,0,0,0,0,0,0,0,0,0,0,0,0,0,0,0,0,0,0,0,0,0,0,0,0,0],"sum_hessian":[3.181426E4,1.1820746E2,3.169605E4,5.106997E1,6.71375E1,2.1244116E3,2.957164E4,2.4748626E0,4.8595104E1,6.1658825E1,5.478668E0,1.9411401E3,1.8327145E2,2.9190385E4,3.8125595E2,3.7105694E1,1.1489412E1,1.1425968E1,5.0232857E1,1.9899905E0,3.4886775E0,7.1118365E2,1.2299564E3,7.338903E1,1.09882416E2,1.9122133E4,1.0068251E4,1.6128464E2,2.1997133E2,2.2483485E0,3.4857346E1,8.242465E0,3.2469468E0,1.0182504E1,1.2434646E0,1.090881E1,3.9324047E1,4.3127466E2,2.79909E2,1.1536858E2,1.1145879E3,6.4902435E1,8.486592E0,1.1744719E1,9.8137695E1,1.717332E4,1.9488121E3,8.426031E3,1.6422196E3,1.224687E1,1.4903777E2,8.133218E1,1.3863914E2,6.72773E0,2.8129616E1,1.2479416E0,6.9945235E0,8.1924095E0,1.9900943E0,6.419996E0,4.488814E0,3.8092537E1,1.2315117E0,4.946674E1,3.8180792E2,7.922655E1,2.0068245E2,1.0912324E2,6.245348E0,1.0489246E3,6.56633E1,4.0971603E1,2.3930834E1,7.238134E0,1.2484584E0,7.9963593E0,3.7483597E0,8.116297E1,1.6974728E1,1.5803588E4,1.3697335E3,1.0992655E3,8.495466E2,7.6618506E3,7.641807E2,7.741227E2,8.680969E2,7.7481728E0,4.4986973E0,2.373351E1,1.2530426E2,6.314019E1,1.8191986E1,5.0431835E1,8.820731E1],"tree_param":{"num_deleted":"0","num_feature":"5","num_nodes":"95","size_leaf_vector":"1"}},{"base_weights":[5.756317E-4,1.7997032E-1,-1.3112513E-2,7.852412E-1,1.4502287E-1,-1.5566091E-2,2.4526915E-1,3.8926822E-1,1.0903612E0,2.6824093E-1,8.307398E-2,-3.344866E-2,1.6317043E-2,-1.5514006E-1,4.476718E-1,-3.1309363E-2,4.8354346E-1,1.2112923E0,-2.0694147E-1,1.0926348E-1,3.722331E-1,4.287846E-2,3.799952E-1,5.709983E-3,-5.8639064E-2,3.1148675E-1,9.454482E-3,3.613205E-2,-2.5310344E-1,6.916568E-1,-6.8978764E-2,5.8870053E-1,-3.76472E-2,1.2489989E0,3.9079767E-3,-7.9005086E-1,3.310017E-2,-1.8605757E-1,2.106121E-1,1.0390705E0,3.518771E-1,4.3837416E-1,4.6482757E-3,1.8400465E-1,6.715261E-1,-4.8735803E-3,2.6757798E-1,-2.4463324E-1,-5.500663E-2,3.8324782E-1,-2.2147919E-1,3.0779276E-2,-9.0889834E-2,-6.6251516E-1,-5.363627E-2,5.635002E-1,1.2556511E0,-3.422171E-1,3.231108E-1,5.0814482E-3,2.5691038E-2,1.4899028E-2,-1.1423444E-2,2.4718015E-2,4.0292434E-2,6.1949757E-3,-3.462605E-2,-7.87526E-3,2.9028658E-2,1.4513028E-2,-4.2517076E-4,3.788066E-2,7.8704525E-3,1.1408097E-2,-2.249064E-3,1.8259626E-2,3.132057E-3,-5.503462E-4,1.0573587E-2,7.817434E-3,-1.6568733E-2,-6.4882557E-3,2.4080485E-2,-4.6160407E-4,4.3418235E-3,2.5867904E-2,5.8681685E-3,-4.417804E-3,-1.6212048E-2,-1.3829418E-3,-3.7100022E-3,8.790589E-3,2.0691203E-2,1.1770628E-2,-1.304132E-2,1.3748421E-3,-3.5621603E-3,-5.76209E-3,4.0871906E-5,-2.8234068E-2,-1.0474483E-2,2.601566E-2,-5.548287E-3,2.2842076E-2,1.4247576E-3,9.583646E-4,4.0249147E-2,1.2215203E-2,-1.4281776E-2,2.8623508E-2,-1.1735508E-3],"categories":[],"categories_nodes":[],"categories_segments":[],"categories_sizes":[],"default_left":[0,0,0,0,0,0,0,0,0,0,0,0,0,0,0,0,0,0,0,0,0,0,0,0,0,0,0,0,0,0,0,0,0,0,0,0,0,0,0,0,0,0,0,0,0,0,0,0,0,0,0,0,0,0,0,0,0,0,0,0,0,0,0,0,0,0,0,0,0,0,0,0,0,0,0,0,0,0,0,0,0,0,0,0,0,0,0,0,0,0,0,0,0,0,0,0,0,0,0,0,0,0,0,0,0,0,0,0,0,0,0],"id":9,"left_children":[1,3,5,7,9,11,13,15,17,19,21,23,25,27,29,-1,31,33,35,37,39,41,43,45,47,49,51,-1,53,55,57,59,61,63,-1,65,-1,67,69,71,73,75,77,79,81,83,85,87,89,91,93,95,97,99,101,103,105,107,109,-1,-1,-1,-1,-1,-1,-1,-1,-1,-1,-1,-1,-1,-1,-1,-1,-1,-1,-1,-1,-1,-1,-1,-1,-1,-1,-1,-1,-1,-1,-1,-1,-1,-1,-1,-1,-1,-1,-1,-1,-1,-1,-1,-1,-1,-1,-1,-1,-1,-1,-1,-1],"loss_changes":[7.8080925E1,4.7568398E1,1.8732996E1,1.4414925E1,1.6254593E1,1.668675E1,2.2596506E1,7.935647E0,1.1046539E1,1.174614E1,1.6936306E1,1.8495909E1,2.130062E1,1.283385E1,2.33539E1,0E0,2.8883495E0,2.4090576E0,6.0073953E0,8.520093E0,5.4793587E0,1.8930874E1,9.546026E0,2.0346706E1,7.6954193E0,9.223038E0,2.1998295E1,0E0,7.197914E0,8.376099E0,6.561663E0,4.745858E0,1.971052E0,1.3268356E0,0E0,2.1378806E0,0E0,6.686236E0,1.29887E1,1.7952251E0,5.1108093E0,6.212593E0,9.145784E0,5.927517E0,8.051676E0,1.1101027E1,1.2037382E1,6.2068815E0,6.8406067E0,5.6307373E0,3.964603E0,1.9082088E1,1.6818962E1,2.197198E0,7.493174E0,1.0606564E1,2.3199425E0,3.8017821E0,5.8072386E0,0E0,0E0,0E0,0E0,0E0,0E0,0E0,0E0,0E0,0E0,0E0,0E0,0E0,0E0,0E0,0E0,0E0,0E0,0E0,0E0,0E0,0E0,0E0,0E0,0E0,0E0,0E0,0E0,0E0,0E0,0E0,0E0,0E0,0E0,0E0,0E0,0E0,0E0,0E0,0E0,0E0,0E0,0E0,0E0,0E0,0E0,0E0,0E0,0E0,0E0,0E0,0E0],"parents":[2147483647,0,0,1,1,2,2,3,3,4,4,5,5,6,6,7,7,8,8,9,9,10,10,11,11,12,12,13,13,14,14,16,16,17,17,18,18,19,19,20,20,21,21,22,22,23,23,24,24,25,25,26,26,28,28,29,29,30,30,31,31,32,32,33,33,35,35,37,37,38,38,39,39,40,40,41,41,42,42,43,43,44,44,45,45,46,46,47,47,48,48,49,49,50,50,51,51,52,52,53,53,54,54,55,55,56,56,57,57,58,58],"right_children":[2,4,6,8,10,12,14,16,18,20,22,24,26,28,30,-1,32,34,36,38,40,42,44,46,48,50,52,-1,54,56,58,60,62,64,-1,66,-1,68,70,72,74,76,78,80,82,84,86,88,90,92,94,96,98,100,102,104,106,108,110,-1,-1,-1,-1,-1,-1,-1,-1,-1,-1,-1,-1,-1,-1,-1,-1,-1,-1,-1,-1,-1,-1,-1,-1,-1,-1,-1,-1,-1,-1,-1,-1,-1,-1,-1,-1,-1,-1,-1,-1,-1,-1,-1,-1,-1,-1,-1,-1,-1,-1,-1,-1],"split_conditions":[-3.2480877E-2,-1.3468443E-1,7.869053E-1,8.105881E-1,6.004982E-1,1.1025413E-2,8.2821804E-1,1.6750108E-2,9.4351214E-1,1.9794343E-1,7.0386237E-1,-9.167389E-3,-7.359373E-3,-2.321006E-2,2.9674716E-2,-3.1309363E-2,7.688951E-1,-5.9470415E-2,9.591047E-1,-8.089809E-2,2.0641261E-1,-9.994808E-2,-4.891753E-2,9.4351214E-1,-3.5531327E-2,5.7723534E-1,8.5744315E-1,3.613205E-2,1.6806723E-4,3.961776E-2,1.0615233E-1,3.9372867E-1,6.4780176E-1,6.205082E-1,3.9079767E-3,5.8262765E-1,3.310017E-2,5.610244E-1,-4.0865596E-2,-5.2469134E-2,-3.3402026E-2,-5.9470415E-2,-2.5683586E-2,9.461605E-1,7.253742E-1,5.883445E-1,-4.1222166E-2,1.372375E-3,8.654874E-3,2.9813053E-2,6.8218964E-1,8.065366E-2,3.20185E-1,7.673169E-1,1.6693851E-2,8.221037E-3,8.4111375E-1,1.91031E-2,8.747893E-1,5.0814482E-3,2.5691038E-2,1.4899028E-2,-1.1423444E-2,2.4718015E-2,4.0292434E-2,6.1949757E-3,-3.462605E-2,-7.87526E-3,2.9028658E-2,1.4513028E-2,-4.2517076E-4,3.788066E-2,7.8704525E-3,1.1408097E-2,-2.249064E-3,1.8259626E-2,3.132057E-3,-5.503462E-4,1.0573587E-2,7.817434E-3,-1.6568733E-2,-6.4882557E-3,2.4080485E-2,-4.6160407E-4,4.3418235E-3,2.5867904E-2,5.8681685E-3,-4.417804E-3,-1.6212048E-2,-1.3829418E-3,-3.7100022E-3,8.790589E-3,2.0691203E-2,1.1770628E-2,-1.304132E-2,1.3748421E-3,-3.5621603E-3,-5.76209E-3,4.0871906E-5,-2.8234068E-2,-1.0474483E-2,2.601566E-2,-5.548287E-3,2.2842076E-2,1.4247576E-3,9.583646E-4,4.0249147E-2,1.2215203E-2,-1.4281776E-2,2.8623508E-2,-1.1735508E-3],"split_indices":[3,4,1,0,0,4,0,1,0,1,1,3,3,3,3,0,1,3,0,4,1,4,3,0,4,1,0,0,4,4,4,1,0,1,0,1,0,0,3,4,3,3,4,0,0,1,4,3,3,4,0,4,1,0,4,3,0,4,0,0,0,0,0,0,0,0,0,0,0,0,0,0,0,0,0,0,0,0,0,0,0,0,0,0,0,0,0,0,0,0,0,0,0,0,0,0,0,0,0,0,0,0,0,0,0,0,0,0,0,0,0],"split_type":[0,0,0,0,0,0,0,0,0,0,0,0,0,0,0,0,0,0,0,0,0,0,0,0,0,0,0,0,0,0,0,0,0,0,0,0,0,0,0,0,0,0,0,0,0,0,0,0,0,0,0,0,0,0,0,0,0,0,0,0,0,0,0,0,0,0,0,0,0,0,0,0,0,0,0,0,0,0,0,0,0,0,0,0,0,0,0,0,0,0,0,0,0,0,0,0,0,0,0,0,0,0,0,0,0,0,0,0,0,0,0],"sum_hessian":[3.1795379E4,2.253196E3,2.9542182E4,1.2182277E2,2.1313733E3,2.926522E4,2.7696112E2,5.400846E1,6.78143E1,7.1195166E2,1.4194216E3,1.8749166E4,1.0516056E4,9.307204E1,1.8388907E2,2.7123632E0,5.12961E1,6.2092506E1,5.721798E0,2.8235452E2,4.2959714E2,1.2511873E3,1.6823427E2,7.339946E3,1.140922E4,2.3792975E2,1.0278126E4,5.4965253E0,8.7575516E1,1.24673874E2,5.92152E1,4.2576252E1,8.719848E0,5.984955E1,2.2429583E0,4.2344103E0,1.4873875E0,7.192769E1,2.1042683E2,1.1243078E1,4.1835406E2,1.0936165E2,1.1418257E3,1.0157711E2,6.665716E1,7.0557637E3,2.8418185E2,2.1728079E2,1.1191938E4,2.0994295E2,2.7986803E1,8.477264E3,1.8008625E3,2.792902E1,5.9646492E1,1.032186E2,2.1455278E1,3.4971527E1,2.424367E1,1.722498E1,2.5351273E1,3.2351582E0,5.4846897E0,1.2614529E1,4.723502E1,1.2490737E0,2.9853365E0,6.818192E1,3.7457645E0,9.447263E1,1.159542E2,8.243976E0,2.9991028E0,3.92364E2,2.599006E1,7.188678E1,3.7474865E1,1.0719097E3,6.991602E1,9.2593285E1,8.983829E0,8.496346E0,5.8160812E1,6.5933154E3,4.6244855E2,2.9494804E1,2.5468703E2,1.6459169E2,5.2689102E1,9.908052E3,1.2838867E3,1.6370174E2,4.6241203E1,6.9988995E0,2.0987904E1,7.7026904E3,7.745727E2,8.5835706E2,9.4250555E2,1.372368E1,1.4205341E1,6.744498E0,5.2901993E1,7.426176E1,2.8956839E1,1.4986795E0,1.99566E1,4.9900007E0,2.998153E1,8.245656E0,1.59980135E1],"tree_param":{"num_deleted":"0","num_feature":"5","num_nodes":"111","size_leaf_vector":"1"}},{"base_weights":[2.6952217E-3,2.0150895E-1,-9.720251E-3,7.60743E-1,1.618807E-1,-1.2718582E-2,2.1801622E-1,1.1086724E-1,9.410467E-1,7.566905E-2,3.3675066E-1,-1.0673563E-2,-1.9621871E-1,5.280288E-1,2.9414736E-2,-3.3367492E-2,3.0090898E-1,9.809825E-1,2.3397297E-1,4.2035884E-1,5.2088454E-2,3.5100406E-1,-4.167893E-2,-1.6259871E-2,7.3074706E-2,3.042174E-1,-2.1717687E-1,2.7116832E-1,7.107923E-1,-3.694939E-2,7.0451826E-2,3.6421023E-2,9.656561E-2,9.0215635E-1,4.0294584E-2,-2.2506543E-1,3.192079E-2,1.9713862E-1,7.7544916E-1,9.8104905E-3,2.159113E-1,3.2179967E-1,9.2524713E-1,2.4909353E-2,-2.6911853E-2,4.8905286E-1,6.1196245E-2,7.988553E-2,9.2195797E-1,-9.334353E-1,-1.953147E-1,1.1831611E0,4.908344E-2,2.497306E-1,8.5294837E-1,2.2664852E-1,-5.6481555E-2,-3.2346983E-2,6.674672E-3,2.7806686E-2,6.423962E-3,-1.7564772E-2,4.441237E-3,-3.5253365E-3,1.7631067E-2,2.0205809E-2,4.080168E-2,-7.138976E-3,7.813914E-4,1.4233112E-3,1.29699595E-2,2.5454886E-2,8.695129E-3,3.0197343E-2,-2.0113292E-3,-2.2774828E-3,1.257014E-3,-1.4652363E-2,-7.6915626E-4,-1.5272357E-2,1.8481258E-2,-2.7090773E-2,2.0108176E-3,2.474131E-2,-6.1836257E-3,3.49729E-2,8.04226E-3,-9.04345E-3,-4.4943668E-2,-2.998295E-2,-5.316251E-3,4.7682982E-2,1.9553088E-2,8.310953E-3,-1.8404827E-2,3.5591293E-2,-1.4907959E-3,2.7038507E-2,-1.6934562E-2,4.4239702E-4,1.1807856E-2,1.5372055E-3,-1.0112804E-2],"categories":[],"categories_nodes":[],"categories_segments":[],"categories_sizes":[],"default_left":[0,0,0,0,0,0,0,0,0,0,0,0,0,0,0,0,0,0,0,0,0,0,0,0,0,0,0,0,0,0,0,0,0,0,0,0,0,0,0,0,0,0,0,0,0,0,0,0,0,0,0,0,0,0,0,0,0,0,0,0,0,0,0,0,0,0,0,0,0,0,0,0,0,0,0,0,0,0,0,0,0,0,0,0,0,0,0,0,0,0,0,0,0,0,0,0,0,0,0,0,0,0,0],"id":10,"left_children":[1,3,5,7,9,11,13,15,17,19,21,23,25,27,29,-1,31,33,35,37,39,41,-1,43,45,47,49,51,53,-1,55,-1,57,59,-1,61,-1,63,65,67,69,71,73,75,77,79,81,83,85,87,89,91,93,95,97,99,101,-1,-1,-1,-1,-1,-1,-1,-1,-1,-1,-1,-1,-1,-1,-1,-1,-1,-1,-1,-1,-1,-1,-1,-1,-1,-1,-1,-1,-1,-1,-1,-1,-1,-1,-1,-1,-1,-1,-1,-1,-1,-1,-1,-1,-1,-1],"loss_changes":[7.8328224E1,4.1211693E1,2.0397423E1,1.432608E1,2.6251904E1,1.106086E1,2.2680855E1,6.8153467E0,2.4889603E0,9.477646E0,1.4640511E1,1.3642017E1,3.4733667E0,6.6973457E0,1.26314945E1,0E0,4.5322967E0,1.380806E0,2.7009044E0,5.767625E0,7.582305E0,9.284164E0,0E0,1.19877205E1,8.979958E0,1.793711E0,4.709448E0,1.2627644E1,5.367115E0,0E0,4.6862216E0,0E0,3.4128096E0,1.1224823E0,0E0,7.570532E-1,0E0,5.869998E0,7.8152657E-1,3.5119984E0,8.1677475E0,8.932785E0,2.2560272E0,9.629589E0,1.2748645E1,6.712078E0,1.0034361E1,2.5090282E0,2.446537E-1,2.7560148E0,4.2549257E0,1.6026726E0,7.934755E0,6.0824533E0,4.9387093E0,3.7396865E0,3.9722836E0,0E0,0E0,0E0,0E0,0E0,0E0,0E0,0E0,0E0,0E0,0E0,0E0,0E0,0E0,0E0,0E0,0E0,0E0,0E0,0E0,0E0,0E0,0E0,0E0,0E0,0E0,0E0,0E0,0E0,0E0,0E0,0E0,0E0,0E0,0E0,0E0,0E0,0E0,0E0,0E0,0E0,0E0,0E0,0E0,0E0,0E0],"parents":[2147483647,0,0,1,1,2,2,3,3,4,4,5,5,6,6,7,7,8,8,9,9,10,10,11,11,12,12,13,13,14,14,16,16,17,17,18,18,19,19,20,20,21,21,23,23,24,24,25,25,26,26,27,27,28,28,30,30,32,32,33,33,35,35,37,37,38,38,39,39,40,40,41,41,42,42,43,43,44,44,45,45,46,46,47,47,48,48,49,49,50,50,51,51,52,52,53,53,54,54,55,55,56,56],"right_children":[2,4,6,8,10,12,14,16,18,20,22,24,26,28,30,-1,32,34,36,38,40,42,-1,44,46,48,50,52,54,-1,56,-1,58,60,-1,62,-1,64,66,68,70,72,74,76,78,80,82,84,86,88,90,92,94,96,98,100,102,-1,-1,-1,-1,-1,-1,-1,-1,-1,-1,-1,-1,-1,-1,-1,-1,-1,-1,-1,-1,-1,-1,-1,-1,-1,-1,-1,-1,-1,-1,-1,-1,-1,-1,-1,-1,-1,-1,-1,-1,-1,-1,-1,-1,-1,-1],"split_conditions":[-3.5481647E-2,-1.3468443E-1,7.688951E-1,4.0926996E-1,2.986191E1,6.821135E-2,2.978509E-3,4.088126E-2,-6.558954E-2,1.0330659E1,5.5873016E1,7.468355E1,6.0869564E1,3.935484E1,4.326923E1,-3.3367492E-2,1.1452361E-1,2.6984127E1,3.074646E1,-7.681089E-2,5.883445E-1,7.532584E-1,-4.167893E-2,-1.3195272E-2,6.257265E-3,5.9815952E1,6.96792E-2,-2.9190687E-2,7.869053E-1,-3.694939E-2,2.7394207E-2,3.6421023E-2,1.22057416E-1,-7.405431E-2,4.0294584E-2,-5.9470415E-2,3.192079E-2,4.995864E-1,6.007102E-1,1.3106796E1,2.36E1,-7.405431E-2,4.0885143E1,2.36E1,1.746134E1,6.7219357E-3,9.992679E-3,4.477612E-2,4.0926996E-1,5.7825364E-2,2.4207173E-2,-5.706905E-2,-2.1146648E-2,4.2350906E1,6.397893E1,2.4744712E-2,8.4107673E-1,-3.2346983E-2,6.674672E-3,2.7806686E-2,6.423962E-3,-1.7564772E-2,4.441237E-3,-3.5253365E-3,1.7631067E-2,2.0205809E-2,4.080168E-2,-7.138976E-3,7.813914E-4,1.4233112E-3,1.29699595E-2,2.5454886E-2,8.695129E-3,3.0197343E-2,-2.0113292E-3,-2.2774828E-3,1.257014E-3,-1.4652363E-2,-7.6915626E-4,-1.5272357E-2,1.8481258E-2,-2.7090773E-2,2.0108176E-3,2.474131E-2,-6.1836257E-3,3.49729E-2,8.04226E-3,-9.04345E-3,-4.4943668E-2,-2.998295E-2,-5.316251E-3,4.7682982E-2,1.9553088E-2,8.310953E-3,-1.8404827E-2,3.5591293E-2,-1.4907959E-3,2.7038507E-2,-1.6934562E-2,4.4239702E-4,1.1807856E-2,1.5372055E-3,-1.0112804E-2],"split_indices":[3,4,1,1,2,3,3,1,3,2,2,2,2,2,2,0,1,2,2,4,1,1,0,3,3,2,4,3,1,0,3,0,1,3,0,3,0,1,1,2,2,3,2,2,2,4,4,4,1,4,1,4,4,2,2,4,1,0,0,0,0,0,0,0,0,0,0,0,0,0,0,0,0,0,0,0,0,0,0,0,0,0,0,0,0,0,0,0,0,0,0,0,0,0,0,0,0,0,0,0,0,0,0],"split_type":[0,0,0,0,0,0,0,0,0,0,0,0,0,0,0,0,0,0,0,0,0,0,0,0,0,0,0,0,0,0,0,0,0,0,0,0,0,0,0,0,0,0,0,0,0,0,0,0,0,0,0,0,0,0,0,0,0,0,0,0,0,0,0,0,0,0,0,0,0,0,0,0,0,0,0,0,0,0,0,0,0,0,0,0,0,0,0,0,0,0,0,0,0,0,0,0,0,0,0,0,0,0,0],"sum_hessian":[3.1731025E4,1.8641674E3,2.986686E4,1.2215258E2,1.7420148E3,2.947968E4,3.8717917E2,2.6880613E1,9.5271965E1,1.1677443E3,5.7427045E2,2.915581E4,3.23869E2,1.4577034E2,2.4140883E2,2.9623218E0,2.3918291E1,8.981197E1,5.459996E0,7.369402E1,1.0940503E3,5.703572E2,3.9132738E0,2.7333383E4,1.8224282E3,1.2475083E1,3.113939E2,6.1633194E1,8.4137146E1,6.693894E0,2.3471494E2,3.470213E0,2.0448078E1,7.662547E1,1.3186501E1,3.9850354E0,1.4749608E0,4.620401E1,2.7490017E1,8.704675E2,2.2358275E2,5.442391E2,2.61181E1,5.6181714E3,2.171521E4,4.948028E1,1.772948E3,9.980129E0,2.4949548E0,7.9880853E0,3.0340582E2,1.1222092E1,5.0411102E1,2.0477667E1,6.365948E1,1.04875626E2,1.2983931E2,1.2474484E0,1.920063E1,7.3631386E1,2.9940805E0,1.7374218E0,2.2476134E0,2.5976046E1,2.0227964E1,2.524145E1,2.2485688E0,5.2691063E1,8.177765E2,1.2640498E2,9.7177765E1,2.9675446E1,5.145636E2,2.4126247E1,1.9918529E0,8.097339E2,4.8084375E3,5.8696236E1,2.1656514E4,5.2450967E0,4.4235184E1,9.732346E0,1.7632157E3,2.2464168E0,7.733712E0,1.2471226E0,1.2478322E0,4.493206E0,3.4948788E0,5.4878564E0,2.9791794E2,5.231392E0,5.9907002E0,3.7940292E1,1.2470811E1,4.242923E0,1.6234745E1,6.191238E1,1.7470977E0,4.6694984E1,5.8180645E1,9.4413216E1,3.5426094E1],"tree_param":{"num_deleted":"0","num_feature":"5","num_nodes":"103","size_leaf_vector":"1"}},{"base_weights":[4.8250632E-4,5.364475E-1,-3.6845098E-3,2.714202E-1,7.293759E-1,6.8322815E-2,-2.0526865E-2,-1.3508585E-1,4.0710795E-1,8.6689913E-1,-5.5456817E-2,5.1574346E-2,3.5908386E-1,-6.2819076E-1,-1.9357266E-2,2.5834292E-1,-4.3202224E-1,4.3221068E-2,3.4719282E-1,1.0447779E0,6.3553745E-1,-4.5062268E-1,1.210825E0,1.2649032E-1,5.9218747E-3,1.6371587E-1,5.0545925E-1,-8.877329E-1,4.130778E-2,-2.3601312E-2,6.430531E-2,-4.6763298E-1,7.020891E-1,-1.4302865E-1,-8.476343E-1,-3.304968E-2,3.8633993E-1,1.1575001E0,6.633186E-1,4.3942815E-1,1.0243645E0,2.7928378E-2,-8.0013E-1,4.3872613E-2,5.9311637E-3,2.3731074E-1,8.6157456E-2,-2.8298432E-2,1.344664E-1,3.3889198E-1,-7.873774E-2,2.476226E-1,7.8005975E-1,2.5737736E-1,-1.3749437E0,-2.1254588E-2,-2.546241E-1,7.466156E-2,-8.099081E-1,-2.2183567E-2,-5.34347E-4,6.8784934E-3,3.9665695E-2,-1.18654985E-2,2.46274E-2,-3.6589373E-2,-3.8772284E-3,7.820085E-3,2.493285E-2,3.672484E-2,1.1982303E-4,1.2304075E-2,3.1085543E-2,-6.2617874E-3,1.8974114E-2,3.389785E-2,-1.9999526E-3,-2.9115198E-2,3.468127E-4,3.5334118E-3,1.0852705E-2,-2.7532335E-3,3.1630888E-3,-1.6345805E-3,3.0396956E-3,-1.3958345E-3,6.0937777E-3,1.765276E-2,-2.3409757E-3,-2.3425126E-2,1.3476246E-3,2.5659235E-2,4.427112E-3,2.4666928E-2,-2.55634E-2,3.257987E-2,-1.9895345E-2,-4.2707823E-2,-3.4372793E-3,-6.938241E-4,6.6485447E-3,-1.5877517E-2,-3.6493274E-3,2.937455E-3,-6.9836895E-3,1.2428546E-2,-3.116297E-2],"categories":[],"categories_nodes":[],"categories_segments":[],"categories_sizes":[],"default_left":[0,0,0,0,0,0,0,0,0,0,0,0,0,0,0,0,0,0,0,0,0,0,0,0,0,0,0,0,0,0,0,0,0,0,0,0,0,0,0,0,0,0,0,0,0,0,0,0,0,0,0,0,0,0,0,0,0,0,0,0,0,0,0,0,0,0,0,0,0,0,0,0,0,0,0,0,0,0,0,0,0,0,0,0,0,0,0,0,0,0,0,0,0,0,0,0,0,0,0,0,0,0,0,0,0,0,0],"id":11,"left_children":[1,3,5,7,9,11,13,15,17,19,21,23,25,27,29,31,33,-1,35,37,39,41,43,45,47,49,51,53,-1,55,57,59,61,63,65,-1,67,69,71,73,75,-1,77,-1,-1,79,81,83,85,87,89,91,93,95,97,99,101,103,105,-1,-1,-1,-1,-1,-1,-1,-1,-1,-1,-1,-1,-1,-1,-1,-1,-1,-1,-1,-1,-1,-1,-1,-1,-1,-1,-1,-1,-1,-1,-1,-1,-1,-1,-1,-1,-1,-1,-1,-1,-1,-1,-1,-1,-1,-1,-1,-1],"loss_changes":[7.0740326E1,1.2296486E1,3.8118782E1,5.821048E0,1.5247498E1,2.8996216E1,1.8091988E1,3.2555602E0,4.3688927E0,4.2698593E0,1.1522507E1,1.9270676E1,9.192398E0,2.6671968E1,9.029097E0,4.258875E0,1.7657957E0,0E0,4.7154827E0,2.0797806E0,3.71801E0,9.169905E0,1.1099262E0,9.515739E0,1.5409574E1,5.9897585E0,1.29009285E1,2.484964E1,0E0,1.3113556E1,1.1176071E1,6.261568E-1,2.0342026E0,2.8729405E0,1.5102425E0,0E0,3.94094E0,3.822609E0,1.2221656E0,4.897525E0,2.0995178E0,0E0,2.0113382E0,0E0,0E0,8.417221E0,5.3808355E0,9.397163E0,9.161901E0,8.545416E0,5.218499E0,5.7620506E0,6.832962E0,1.13591E1,1.7352104E0,1.0902018E1,8.818756E0,8.704257E0,4.4811487E0,0E0,0E0,0E0,0E0,0E0,0E0,0E0,0E0,0E0,0E0,0E0,0E0,0E0,0E0,0E0,0E0,0E0,0E0,0E0,0E0,0E0,0E0,0E0,0E0,0E0,0E0,0E0,0E0,0E0,0E0,0E0,0E0,0E0,0E0,0E0,0E0,0E0,0E0,0E0,0E0,0E0,0E0,0E0,0E0,0E0,0E0,0E0,0E0],"parents":[2147483647,0,0,1,1,2,2,3,3,4,4,5,5,6,6,7,7,8,8,9,9,10,10,11,11,12,12,13,13,14,14,15,15,16,16,18,18,19,19,20,20,21,21,22,22,23,23,24,24,25,25,26,26,27,27,29,29,30,30,31,31,32,32,33,33,34,34,36,36,37,37,38,38,39,39,40,40,42,42,45,45,46,46,47,47,48,48,49,49,50,50,51,51,52,52,53,53,54,54,55,55,56,56,57,57,58,58],"right_children":[2,4,6,8,10,12,14,16,18,20,22,24,26,28,30,32,34,-1,36,38,40,42,44,46,48,50,52,54,-1,56,58,60,62,64,66,-1,68,70,72,74,76,-1,78,-1,-1,80,82,84,86,88,90,92,94,96,98,100,102,104,106,-1,-1,-1,-1,-1,-1,-1,-1,-1,-1,-1,-1,-1,-1,-1,-1,-1,-1,-1,-1,-1,-1,-1,-1,-1,-1,-1,-1,-1,-1,-1,-1,-1,-1,-1,-1,-1,-1,-1,-1,-1,-1,-1,-1,-1,-1,-1,-1],"split_conditions":[-7.405431E-2,8.082484E-1,-1.6232109E-2,2.3644386E-1,9.4351214E-1,6.8364376E-1,1.3106796E1,-8.908477E-2,2.72066E-1,-8.908477E-2,2.9564194E1,5.6515676E-1,8.2821804E-1,1.8676684E-3,7.842105E1,1.746134E1,1.4938514E-1,4.3221068E-2,2.789066E-1,2.3088022E1,2.6984127E1,1.4956002E1,4.2886943E-1,-3.3402026E-2,3.8977634E1,7.4555504E-1,3.2608696E1,-2.5448853E-3,4.130778E-2,6.1478768E-2,8.4107673E-1,1.3106796E1,4.5557564E-1,1.2580086E-1,1.9578241E-1,-3.304968E-2,2.8378378E1,9.3141264E-1,3.015873E1,4.3908367E-1,3.6042404E1,2.7928378E-2,9.635833E-1,4.3872613E-2,5.9311637E-3,2.5366628E-1,2E1,9.2495203E-1,7.339627E-1,7.3920363E-1,7.592625E-1,8.513625E-1,5.2727272E1,1.514405E-1,4.257156E-4,7.869053E-1,4.9723676E-1,9.209401E-1,5.610244E-1,-2.2183567E-2,-5.34347E-4,6.8784934E-3,3.9665695E-2,-1.18654985E-2,2.46274E-2,-3.6589373E-2,-3.8772284E-3,7.820085E-3,2.493285E-2,3.672484E-2,1.1982303E-4,1.2304075E-2,3.1085543E-2,-6.2617874E-3,1.8974114E-2,3.389785E-2,-1.9999526E-3,-2.9115198E-2,3.468127E-4,3.5334118E-3,1.0852705E-2,-2.7532335E-3,3.1630888E-3,-1.6345805E-3,3.0396956E-3,-1.3958345E-3,6.0937777E-3,1.765276E-2,-2.3409757E-3,-2.3425126E-2,1.3476246E-3,2.5659235E-2,4.427112E-3,2.4666928E-2,-2.55634E-2,3.257987E-2,-1.9895345E-2,-4.2707823E-2,-3.4372793E-3,-6.938241E-4,6.6485447E-3,-1.5877517E-2,-3.6493274E-3,2.937455E-3,-6.9836895E-3,1.2428546E-2,-3.116297E-2],"split_indices":[3,0,3,1,0,1,2,3,1,3,2,0,0,3,2,2,1,0,1,2,2,2,1,3,2,0,2,3,0,3,1,2,0,1,1,0,2,0,2,1,2,0,0,0,0,1,2,0,0,1,0,0,2,1,3,1,0,0,0,0,0,0,0,0,0,0,0,0,0,0,0,0,0,0,0,0,0,0,0,0,0,0,0,0,0,0,0,0,0,0,0,0,0,0,0,0,0,0,0,0,0,0,0,0,0,0,0],"split_type":[0,0,0,0,0,0,0,0,0,0,0,0,0,0,0,0,0,0,0,0,0,0,0,0,0,0,0,0,0,0,0,0,0,0,0,0,0,0,0,0,0,0,0,0,0,0,0,0,0,0,0,0,0,0,0,0,0,0,0,0,0,0,0,0,0,0,0,0,0,0,0,0,0,0,0,0,0,0,0,0,0,0,0,0,0,0,0,0,0,0,0,0,0,0,0,0,0,0,0,0,0,0,0,0,0,0,0],"sum_hessian":[3.1672299E4,2.433603E2,3.142894E4,1.0353721E2,1.3982309E2,5.9570938E3,2.5471846E4,2.591201E1,7.762519E1,1.18886505E2,2.0936594E1,5.633755E3,3.2333917E2,4.7902805E1,2.5423941E4,1.1201047E1,1.4710964E1,2.9904962E0,7.46347E1,6.522417E1,5.3662334E1,1.6447876E1,4.4887166E0,2.1325146E3,3.5012402E3,1.3939989E2,1.8393927E2,4.290629E1,4.9965205E0,2.4197182E4,1.2267598E3,4.228812E0,6.9722347E0,9.470113E0,5.240852E0,1.2494824E0,7.3385216E1,4.8776245E1,1.6447924E1,3.708715E1,1.6575182E1,2.984973E0,1.3462904E1,3.2404974E0,1.2482193E0,5.6772473E2,1.5647898E3,2.7657417E3,7.3549835E2,8.069724E1,5.8702644E1,9.584613E1,8.809314E1,1.2947354E1,2.9958933E1,2.3954941E4,2.4224178E2,1.2133011E3,1.3458598E1,2.2346015E0,1.9942105E0,4.7331324E0,2.2391024E0,7.9717407E0,1.4983716E0,2.9931462E0,2.2477057E0,5.8454384E1,1.4930833E1,4.605356E1,2.722689E0,1.1046864E1,5.40106E0,8.492312E0,2.8594837E1,1.5080406E1,1.4947772E0,1.0965539E1,2.497365E0,2.905746E2,2.7715015E2,1.5260239E2,1.4121874E3,2.3013728E3,4.6436905E2,2.0236472E2,5.3313367E2,5.0225468E1,3.0471775E1,7.99496E0,5.0707684E1,1.2482539E1,8.3363594E1,8.635811E1,1.7350363E0,6.719354E0,6.2279997E0,2.8720798E1,1.2381334E0,2.3772527E4,1.8241411E2,7.8058174E1,1.6418361E2,1.1286211E3,8.468002E1,1.9921359E0,1.1466463E1],"tree_param":{"num_deleted":"0","num_feature":"5","num_nodes":"107","size_leaf_vector":"1"}},{"base_weights":[-6.7620375E-4,7.518237E-1,-3.5098158E-3,2.8345275E-1,9.277655E-1,8.027183E-2,-1.5060331E-2,-2.8111406E-2,3.979609E-1,8.202076E-1,1.3641232E0,-3.3955563E-2,1.3068974E-1,-3.4308102E-2,1.765633E-2,7.2094053E-1,-1.4499972E-3,8.956486E-1,-3.0740064E-1,6.572695E-1,4.481158E-2,1.0396986E-1,-7.105319E-2,1.09248914E-1,4.861832E-1,-4.0880684E-2,8.2481965E-2,7.452881E-2,-3.5635844E-2,8.8470966E-1,-1.1138978E-2,-5.015657E-1,2.9172978E-1,9.9949545E-1,6.4685994E-1,-2.358623E-2,9.424575E-3,2.9418975E-2,5.772165E-3,-1.8816775E-1,2.0440724E-1,-4.3351326E-2,-2.5459805E-1,1.14822626E-1,-7.735983E-1,2.946231E-1,8.285679E-1,-3.5536725E-2,-1.5413576E-1,3.061265E-1,-1.3787597E-2,3.7681562E-1,6.270123E-2,-6.063238E-2,6.1076775E-2,1.8320939E-2,3.8522583E-2,-1.9326506E-2,-1.3041657E-3,1.7268164E-2,-4.7524064E-3,3.2727707E-2,1.8128483E-2,2.7039979E-2,8.848875E-3,7.7601615E-3,-1.5049092E-2,1.0609775E-2,8.862509E-4,-6.180929E-3,4.1069728E-4,-6.07458E-4,-1.4894702E-2,8.024295E-3,2.6625157E-3,-3.2467876E-2,-1.1344663E-3,1.14428485E-2,-1.0910123E-2,1.4817687E-2,3.5351336E-2,-9.21276E-4,-4.0241047E-3,-1.3923161E-2,-3.8230382E-3,6.2013087E-3,2.1851076E-2,-1.5782855E-2,6.317778E-4,1.5795877E-2,3.2007678E-3,1.6789418E-3,9.955646E-3,-1.3738619E-3,-6.1790613E-3,2.1322838E-3,-2.494391E-2],"categories":[],"categories_nodes":[],"categories_segments":[],"categories_sizes":[],"default_left":[0,0,0,0,0,0,0,0,0,0,0,0,0,0,0,0,0,0,0,0,0,0,0,0,0,0,0,0,0,0,0,0,0,0,0,0,0,0,0,0,0,0,0,0,0,0,0,0,0,0,0,0,0,0,0,0,0,0,0,0,0,0,0,0,0,0,0,0,0,0,0,0,0,0,0,0,0,0,0,0,0,0,0,0,0,0,0,0,0,0,0,0,0,0,0,0,0],"id":12,"left_children":[1,3,5,7,9,11,13,-1,15,17,19,21,23,25,27,29,31,33,35,37,-1,39,41,43,45,47,49,51,53,55,-1,57,59,61,63,-1,-1,-1,-1,65,67,69,71,73,75,77,79,81,83,85,87,89,91,93,95,-1,-1,-1,-1,-1,-1,-1,-1,-1,-1,-1,-1,-1,-1,-1,-1,-1,-1,-1,-1,-1,-1,-1,-1,-1,-1,-1,-1,-1,-1,-1,-1,-1,-1,-1,-1,-1,-1,-1,-1,-1,-1],"loss_changes":[6.780194E1,9.567062E0,3.0656816E1,5.1265764E0,2.9303055E0,2.2109644E1,1.7532618E1,0E0,4.103065E0,6.3765373E0,4.429226E-1,6.025476E0,2.0245537E1,1.34587345E1,3.1259853E1,3.4737043E0,2.3771906E0,1.0968704E0,1.8070344E0,4.4197702E-1,0E0,7.3651657E0,4.704669E0,1.2454363E1,9.672367E0,1.0038702E1,2.011863E1,1.7814474E1,1.287619E1,9.214735E-1,0E0,3.6347568E-1,1.3976762E0,9.947243E-1,1.7674522E0,0E0,0E0,0E0,0E0,9.151071E0,4.8517613E0,7.4917355E0,6.8727684E0,9.918526E0,3.5689316E0,5.767543E0,5.703232E0,7.539976E0,6.1274376E0,1.1652689E1,1.1687645E1,7.5331554E0,8.689228E0,9.115519E0,9.823674E0,0E0,0E0,0E0,0E0,0E0,0E0,0E0,0E0,0E0,0E0,0E0,0E0,0E0,0E0,0E0,0E0,0E0,0E0,0E0,0E0,0E0,0E0,0E0,0E0,0E0,0E0,0E0,0E0,0E0,0E0,0E0,0E0,0E0,0E0,0E0,0E0,0E0,0E0,0E0,0E0,0E0,0E0],"parents":[2147483647,0,0,1,1,2,2,3,3,4,4,5,5,6,6,8,8,9,9,10,10,11,11,12,12,13,13,14,14,15,15,16,16,17,17,18,18,19,19,21,21,22,22,23,23,24,24,25,25,26,26,27,27,28,28,29,29,31,31,32,32,33,33,34,34,39,39,40,40,41,41,42,42,43,43,44,44,45,45,46,46,47,47,48,48,49,49,50,50,51,51,52,52,53,53,54,54],"right_children":[2,4,6,8,10,12,14,-1,16,18,20,22,24,26,28,30,32,34,36,38,-1,40,42,44,46,48,50,52,54,56,-1,58,60,62,64,-1,-1,-1,-1,66,68,70,72,74,76,78,80,82,84,86,88,90,92,94,96,-1,-1,-1,-1,-1,-1,-1,-1,-1,-1,-1,-1,-1,-1,-1,-1,-1,-1,-1,-1,-1,-1,-1,-1,-1,-1,-1,-1,-1,-1,-1,-1,-1,-1,-1,-1,-1,-1,-1,-1,-1,-1],"split_conditions":[-1.3468443E-1,4.955051E-1,-2.321006E-2,4.088126E-2,2.6984127E1,2.36E1,1.1974614E-2,-2.8111406E-2,-8.908477E-2,-7.405431E-2,6.41288E-1,-5.5233E-2,7.0386237E-1,6.070358E-1,1.6122697E-2,3.1578947E1,2E1,7.869053E-1,6.7482287E-1,5.4543376E-1,4.481158E-2,2.4716043E-1,2.2614841E1,5.4E1,3.4482758E1,1.1697418E-2,-2.1590075E-2,-7.7308486E-3,7.842105E1,1.9214876E1,-1.1138978E-2,4.0926996E-1,2.7348244E1,-8.908477E-2,1.6346153E1,-2.358623E-2,9.424575E-3,2.9418975E-2,5.772165E-3,1.746134E1,5.6653607E-1,-7.042035E-2,-5.2469134E-2,-7.332324E-2,1.517341E-2,-3.863442E-2,7.869053E-1,5.309415E-1,3.5282183E-2,-2.5683586E-2,3.308725E1,3.966489E-1,7.13901E-1,9.104326E-2,8.4107673E-1,1.8320939E-2,3.8522583E-2,-1.9326506E-2,-1.3041657E-3,1.7268164E-2,-4.7524064E-3,3.2727707E-2,1.8128483E-2,2.7039979E-2,8.848875E-3,7.7601615E-3,-1.5049092E-2,1.0609775E-2,8.862509E-4,-6.180929E-3,4.1069728E-4,-6.07458E-4,-1.4894702E-2,8.024295E-3,2.6625157E-3,-3.2467876E-2,-1.1344663E-3,1.14428485E-2,-1.0910123E-2,1.4817687E-2,3.5351336E-2,-9.21276E-4,-4.0241047E-3,-1.3923161E-2,-3.8230382E-3,6.2013087E-3,2.1851076E-2,-1.5782855E-2,6.317778E-4,1.5795877E-2,3.2007678E-3,1.6789418E-3,9.955646E-3,-1.3738619E-3,-6.1790613E-3,2.1322838E-3,-2.494391E-2],"split_indices":[4,1,3,1,2,2,4,0,3,3,1,3,1,1,3,2,2,1,1,1,0,1,2,2,2,3,4,3,2,2,0,1,2,3,2,0,0,0,0,2,1,4,4,4,4,4,1,1,1,4,2,1,1,4,1,0,0,0,0,0,0,0,0,0,0,0,0,0,0,0,0,0,0,0,0,0,0,0,0,0,0,0,0,0,0,0,0,0,0,0,0,0,0,0,0,0,0],"split_type":[0,0,0,0,0,0,0,0,0,0,0,0,0,0,0,0,0,0,0,0,0,0,0,0,0,0,0,0,0,0,0,0,0,0,0,0,0,0,0,0,0,0,0,0,0,0,0,0,0,0,0,0,0,0,0,0,0,0,0,0,0,0,0,0,0,0,0,0,0,0,0,0,0,0,0,0,0,0,0,0,0,0,0,0,0,0,0,0,0,0,0,0,0,0,0,0,0],"sum_hessian":[3.179543E4,1.1828803E2,3.167714E4,3.3013775E1,8.527426E1,3.8373047E3,2.7839836E4,2.215573E0,3.07982E1,7.0721725E1,1.4552533E1,1.1751647E3,2.6621401E3,1.7527852E4,1.0311984E4,1.6583284E1,1.4214917E1,6.6479706E1,4.242017E0,3.1954298E0,1.1357103E1,2.487041E2,9.2646063E2,2.5119448E3,1.5019528E2,1.659461E4,9.332432E2,4.9882314E3,5.323753E3,1.4586245E1,1.9970398E0,4.9907513E0,9.224166E0,4.47734E1,2.1706306E1,2.2465231E0,1.9954939E0,1.2301933E0,1.9652367E0,6.340562E1,1.852985E2,8.0604315E2,1.2041744E2,2.49705E3,1.4894774E1,9.750367E1,5.2691616E1,1.5848126E4,7.46483E2,2.8017853E2,6.530647E2,1.8666356E2,4.801568E3,4.2306606E3,1.093092E3,1.0150873E1,4.4353714E0,3.49584E0,1.4949114E0,5.4858723E0,3.7382934E0,3.4931934E1,9.841468E0,1.1690811E1,1.0015495E1,2.6213663E1,3.719196E1,9.941928E1,8.58792E1,2.0857695E2,5.9746625E2,6.171272E1,5.870472E1,3.6291272E2,2.1341372E3,1.0161204E1,4.73357E0,8.651592E1,1.0987747E1,2.8162237E1,2.4529379E1,1.5109659E4,7.3846716E2,5.7903934E1,6.8857904E2,2.279886E2,5.2189915E1,4.0694183E1,6.1237054E2,1.1948871E2,6.717485E1,4.685505E3,1.1606313E2,3.8399646E3,3.906961E2,1.0818917E3,1.1200326E1],"tree_param":{"num_deleted":"0","num_feature":"5","num_nodes":"97","size_leaf_vector":"1"}},{"base_weights":[2.2762748E-3,1.6835484E-1,-9.51108E-3,7.217209E-1,1.3414639E-1,-1.0851318E-3,-5.0225038E-2,2.7938026E-1,9.704451E-1,4.0485848E-2,2.5357893E-1,-1.990187E-2,6.404568E-2,-7.89665E-2,4.82309E-2,-3.9260733E-1,3.768102E-1,1.0538912E0,-2.6717293E-1,-2.073369E-3,1.7212006E-1,4.1574273E-1,1.6409448E-1,5.4658874E-4,-5.968878E-2,9.5681116E-2,-1.2128586E-3,-4.8748087E-2,-1.8758015E-1,-6.556917E-1,5.7339974E-2,1.566218E-1,-2.6007174E-2,1.03801735E-1,7.039209E-1,1.1409734E0,3.457874E-1,-8.2334864E-1,2.9178742E-2,1.0691947E-1,-1.8443082E-1,1.0609086E0,1.3849209E-1,2.8053698E-1,6.015141E-1,1.7847197E-1,-1.0666151E0,-5.618903E-3,1.5146501E-1,-1.0112689E-1,-2.6776139E-2,3.5863957E-1,8.743326E-2,-3.6335263E-2,2.1708614E-1,-3.11534E-3,-1.22316554E-1,-4.286635E-1,-1.4124729E-1,-8.6516553E-1,1.8975496E-1,7.118655E-2,-1.9400041E-1,1.1246583E-2,-4.71796E-3,1.6518485E-2,-1.214352E-3,2.6167624E-2,8.067121E-3,1.897023E-2,3.521586E-2,-2.4234976E-3,3.6149677E-2,-3.9027803E-2,6.964797E-3,5.992634E-4,5.5427677E-3,2.4663226E-4,-8.55002E-3,8.987637E-3,3.655017E-2,-1.9162556E-2,5.033319E-3,5.7376893E-3,1.768683E-2,1.2491247E-2,2.8238721E-2,8.685755E-3,1.5510927E-3,-3.7777934E-2,-3.711195E-3,-3.2464056E-3,7.357213E-5,1.2580418E-2,2.4884772E-3,-2.1504445E-3,-6.19406E-3,2.9259955E-3,-1.3925496E-3,1.3372349E-2,-1.0683719E-2,2.1588665E-3,5.7003754E-3,9.236173E-3,-2.074723E-3,-5.54229E-3,8.591681E-3,-2.5826907E-3,1.4927868E-3,-2.5759246E-2,-3.3288284E-3,-2.2359844E-2,-5.905567E-3,1.0424969E-2,-4.742026E-3,7.583133E-3,-3.05598E-2,2.1385659E-2,-1.0708051E-2,1.0292615E-3,6.822271E-3,-2.5944864E-2,-3.2900544E-3],"categories":[],"categories_nodes":[],"categories_segments":[],"categories_sizes":[],"default_left":[0,0,0,0,0,0,0,0,0,0,0,0,0,0,0,0,0,0,0,0,0,0,0,0,0,0,0,0,0,0,0,0,0,0,0,0,0,0,0,0,0,0,0,0,0,0,0,0,0,0,0,0,0,0,0,0,0,0,0,0,0,0,0,0,0,0,0,0,0,0,0,0,0,0,0,0,0,0,0,0,0,0,0,0,0,0,0,0,0,0,0,0,0,0,0,0,0,0,0,0,0,0,0,0,0,0,0,0,0,0,0,0,0,0,0,0,0,0,0,0,0,0,0],"id":13,"left_children":[1,3,5,7,9,11,13,15,17,19,21,23,25,27,29,31,33,35,37,39,41,43,45,47,49,51,53,55,57,59,61,63,-1,65,67,69,71,73,-1,75,77,79,81,83,85,87,89,91,93,95,97,99,101,103,105,107,109,111,113,115,117,119,121,-1,-1,-1,-1,-1,-1,-1,-1,-1,-1,-1,-1,-1,-1,-1,-1,-1,-1,-1,-1,-1,-1,-1,-1,-1,-1,-1,-1,-1,-1,-1,-1,-1,-1,-1,-1,-1,-1,-1,-1,-1,-1,-1,-1,-1,-1,-1,-1,-1,-1,-1,-1,-1,-1,-1,-1,-1,-1,-1,-1],"loss_changes":[6.203517E1,3.9656868E1,1.0150593E1,1.3155449E1,2.2127304E1,3.0047472E1,1.43608465E1,3.1155756E0,8.306976E0,6.2209554E0,1.2551353E1,1.5475912E1,1.134565E1,1.2881533E1,7.3925314E0,1.7585292E0,3.5078082E0,4.107094E0,4.735596E0,1.6716757E1,7.9617453E0,7.5821915E0,1.0135721E1,1.1692814E1,8.804266E0,7.996208E0,1.3772555E1,1.0319475E1,9.484533E0,2.7735538E0,3.957958E0,3.1475115E-1,0E0,1.5069001E0,1.0885553E0,3.3792114E-1,3.553379E0,2.5607255E0,0E0,3.559081E0,6.0983896E0,8.024483E-1,6.0834937E0,4.866536E0,7.730072E0,7.818426E0,1.0492282E0,9.99776E0,9.017944E0,8.850737E0,8.795487E0,7.1468344E0,5.683798E0,1.7502298E1,6.985819E0,8.332359E0,9.744192E0,9.929161E0,5.95963E0,2.3146296E0,1.3256545E0,6.184657E0,3.2680082E0,0E0,0E0,0E0,0E0,0E0,0E0,0E0,0E0,0E0,0E0,0E0,0E0,0E0,0E0,0E0,0E0,0E0,0E0,0E0,0E0,0E0,0E0,0E0,0E0,0E0,0E0,0E0,0E0,0E0,0E0,0E0,0E0,0E0,0E0,0E0,0E0,0E0,0E0,0E0,0E0,0E0,0E0,0E0,0E0,0E0,0E0,0E0,0E0,0E0,0E0,0E0,0E0,0E0,0E0,0E0,0E0,0E0,0E0,0E0,0E0],"parents":[2147483647,0,0,1,1,2,2,3,3,4,4,5,5,6,6,7,7,8,8,9,9,10,10,11,11,12,12,13,13,14,14,15,15,16,16,17,17,18,18,19,19,20,20,21,21,22,22,23,23,24,24,25,25,26,26,27,27,28,28,29,29,30,30,31,31,33,33,34,34,35,35,36,36,37,37,39,39,40,40,41,41,42,42,43,43,44,44,45,45,46,46,47,47,48,48,49,49,50,50,51,51,52,52,53,53,54,54,55,55,56,56,57,57,58,58,59,59,60,60,61,61,62,62],"right_children":[2,4,6,8,10,12,14,16,18,20,22,24,26,28,30,32,34,36,38,40,42,44,46,48,50,52,54,56,58,60,62,64,-1,66,68,70,72,74,-1,76,78,80,82,84,86,88,90,92,94,96,98,100,102,104,106,108,110,112,114,116,118,120,122,-1,-1,-1,-1,-1,-1,-1,-1,-1,-1,-1,-1,-1,-1,-1,-1,-1,-1,-1,-1,-1,-1,-1,-1,-1,-1,-1,-1,-1,-1,-1,-1,-1,-1,-1,-1,-1,-1,-1,-1,-1,-1,-1,-1,-1,-1,-1,-1,-1,-1,-1,-1,-1,-1,-1,-1,-1,-1,-1,-1],"split_conditions":[-3.3402026E-2,-1.3468443E-1,1.7921742E-2,7.69657E-1,2.7692308E1,1.1974614E-2,7.777778E1,1.6147763E-1,9.4351214E-1,8.8430834E-1,-6.51801E-2,4.806344E1,7.6199454E-1,8.5948056E-1,2.3700427E-2,8.0943316E-2,1.9214876E1,-7.405431E-2,9.591047E-1,7.2833157E-1,1.0330659E1,3.2608696E1,5.4375E1,9.36284E-1,9.804019E-4,-7.187352E-3,3.699381E-2,3.0570125E-2,2.0400506E-2,8.6901164E-1,9.385768E-1,2.4537037E1,-2.6007174E-2,5.017572E-1,-7.405431E-2,1.0330659E1,2.8027555E1,2E1,2.9178742E-2,-7.332324E-2,-5.5233E-2,-5.9470415E-2,1.3106796E1,-4.0865596E-2,8.4516495E-1,8.057723E-1,8.709467E-1,2.36E1,-3.420806E-2,5.5873016E1,2.5834113E-3,4.601923E-2,7.227357E1,4.857143E1,7.8951937E-1,3.0437756E-2,5.0292397E1,6.0869564E1,-2.5826446E-3,1.9185555E-1,2.1782178E-2,8.2821804E-1,3.388178E-2,1.1246583E-2,-4.71796E-3,1.6518485E-2,-1.214352E-3,2.6167624E-2,8.067121E-3,1.897023E-2,3.521586E-2,-2.4234976E-3,3.6149677E-2,-3.9027803E-2,6.964797E-3,5.992634E-4,5.5427677E-3,2.4663226E-4,-8.55002E-3,8.987637E-3,3.655017E-2,-1.9162556E-2,5.033319E-3,5.7376893E-3,1.768683E-2,1.2491247E-2,2.8238721E-2,8.685755E-3,1.5510927E-3,-3.7777934E-2,-3.711195E-3,-3.2464056E-3,7.357213E-5,1.2580418E-2,2.4884772E-3,-2.1504445E-3,-6.19406E-3,2.9259955E-3,-1.3925496E-3,1.3372349E-2,-1.0683719E-2,2.1588665E-3,5.7003754E-3,9.236173E-3,-2.074723E-3,-5.54229E-3,8.591681E-3,-2.5826907E-3,1.4927868E-3,-2.5759246E-2,-3.3288284E-3,-2.2359844E-2,-5.905567E-3,1.0424969E-2,-4.742026E-3,7.583133E-3,-3.05598E-2,2.1385659E-2,-1.0708051E-2,1.0292615E-3,6.822271E-3,-2.5944864E-2,-3.2900544E-3],"split_indices":[3,4,3,0,2,4,2,0,0,0,4,2,0,0,4,0,2,3,0,0,2,2,2,0,4,3,4,3,3,0,0,2,0,0,3,2,2,2,0,4,3,3,2,3,0,0,0,2,4,2,4,4,2,2,0,4,2,2,4,0,4,0,4,0,0,0,0,0,0,0,0,0,0,0,0,0,0,0,0,0,0,0,0,0,0,0,0,0,0,0,0,0,0,0,0,0,0,0,0,0,0,0,0,0,0,0,0,0,0,0,0,0,0,0,0,0,0,0,0,0,0,0,0],"split_type":[0,0,0,0,0,0,0,0,0,0,0,0,0,0,0,0,0,0,0,0,0,0,0,0,0,0,0,0,0,0,0,0,0,0,0,0,0,0,0,0,0,0,0,0,0,0,0,0,0,0,0,0,0,0,0,0,0,0,0,0,0,0,0,0,0,0,0,0,0,0,0,0,0,0,0,0,0,0,0,0,0,0,0,0,0,0,0,0,0,0,0,0,0,0,0,0,0,0,0,0,0,0,0,0,0,0,0,0,0,0,0,0,0,0,0,0,0,0,0,0,0,0,0],"sum_hessian":[3.1687146E4,2.099059E3,2.9588088E4,1.21036644E2,1.9780225E3,2.4515512E4,5.072575E3,4.4327023E1,7.670962E1,1.1093752E3,8.686473E2,1.902093E4,5.4945825E3,3.926532E3,1.1460432E3,5.2294126E0,3.909761E1,7.200327E1,4.70635E0,8.3907465E2,2.7030054E2,3.0758878E2,5.610585E2,1.2564434E4,6.4564966E3,3.7003127E3,1.7942697E3,3.0730103E3,8.5352185E2,1.3734044E1,1.1323092E3,2.7336624E0,2.49575E0,2.2029224E1,1.7068386E1,6.3573696E1,8.429573E0,3.4807703E0,1.2255795E0,5.254395E2,3.1363513E2,8.740497E0,2.6156003E2,1.7947542E2,1.2811336E2,5.554248E2,5.633647E0,1.2072208E4,4.9222488E2,2.857162E3,3.5993345E3,1.11240944E2,3.5890718E3,1.5463147E3,2.4795499E2,1.8972402E3,1.17577E3,1.3626157E2,7.1726025E2,1.0988204E1,2.7458394E0,1.0738657E3,5.844351E1,1.4978113E0,1.235851E0,4.6896787E0,1.7339546E1,1.1581665E1,5.4867215E0,5.089511E0,5.8484184E1,6.2383695E0,2.1912038E0,2.23638E0,1.2443904E0,2.4879765E2,2.7664188E2,1.07886215E2,2.0574892E2,1.9951415E0,6.745355E0,8.741623E0,2.5281842E2,1.4050172E2,3.897369E1,8.436796E1,4.3745403E1,2.953798E2,2.6004504E2,4.3992977E0,1.2343491E0,8.795694E2,1.1192639E4,9.921084E1,3.9301404E2,2.2343042E3,6.228579E2,4.9058807E2,3.1087463E3,9.949256E1,1.1748386E1,3.1201855E3,4.6888617E2,1.3388419E2,1.4124304E3,3.622897E1,2.1172603E2,7.381945E2,1.1590458E3,1.6724121E1,1.1590459E3,5.6654175E1,7.96074E1,2.3209259E1,6.9405096E2,1.2484773E0,9.739727E0,1.2478684E0,1.4979709E0,8.697681E2,2.040976E2,5.4930797E0,5.2950428E1],"tree_param":{"num_deleted":"0","num_feature":"5","num_nodes":"123","size_leaf_vector":"1"}},{"base_weights":[-4.3617804E-3,5.2299243E-1,-8.494997E-3,2.4407138E-1,8.72822E-1,6.953578E-2,-1.8971654E-2,-1.6244029E-1,3.6514735E-1,1.0271664E0,-4.8805255E-2,2.0365293E-1,2.3062812E-2,-3.9417E-2,1.575868E-2,-6.841274E-3,-8.201598E-1,5.839387E-1,2.763191E-1,1.126097E0,3.7738007E-1,8.342992E-1,-1.0587064E0,1.3703947E-1,3.010236E-1,-3.0271124E-2,1.7432296E-1,-4.57508E-2,7.042376E-2,6.6303015E-2,-4.2349793E-2,-8.435237E-1,1.2901974E-1,-8.041261E-3,-3.0454012E-2,3.8970217E-1,9.5374864E-1,-2.2443883E-1,4.6532217E-1,8.272801E-1,1.2118984E0,3.2913573E-2,1.8713629E-1,2.9195895E-2,4.2303805E-3,-1.1814963E0,-6.2193144E-3,4.2983449E-1,9.624958E-2,4.6831214E-1,1.6948721E-1,1.266882E-1,-6.2075216E-2,3.866849E-2,3.39963E-1,-3.905773E-2,-1.2027658E-1,3.2686496E-3,3.591764E-1,3.2595515E-1,5.81725E-2,-2.7870486E-2,-1.5348701E-1,-8.235387E-3,-3.215893E-2,1.6930168E-2,-5.142717E-3,2.086333E-2,7.292667E-5,4.250662E-2,1.5106861E-2,-4.0703032E-2,1.8260999E-3,1.7460255E-2,-2.0145075E-3,-7.773622E-3,2.81302E-2,3.7762526E-2,1.3931198E-2,-5.2560633E-3,2.1224309E-2,-1.2299534E-2,-4.3813284E-2,1.5577246E-2,-1.3106882E-3,-3.5801854E-3,4.984844E-3,2.4546387E-2,1.1502672E-2,1.208328E-2,1.6626732E-3,1.7632402E-3,1.9273289E-2,-2.1543533E-3,2.5101522E-2,3.2454983E-3,-4.4362107E-3,-3.1500994E-3,1.3455934E-2,-1.2409065E-3,2.8954737E-3,-3.818601E-2,-3.529583E-3,7.3585245E-3,-2.018621E-3,2.0750437E-2,7.00332E-3,2.3094501E-2,6.846637E-3,2.554058E-3,-3.4358885E-4,1.8272271E-4,-2.9685672E-3,-8.243843E-3,-1.1986623E-3],"categories":[],